tree
version=v3
num_class=1
num_tree_per_iteration=1
label_index=0
max_feature_idx=199
objective=regression
feature_names=MaxEStateIndex MinEStateIndex MaxAbsEStateIndex MinAbsEStateIndex qed MolWt HeavyAtomMolWt ExactMolWt NumValenceElectrons NumRadicalElectrons MaxPartialCharge MinPartialCharge MaxAbsPartialCharge MinAbsPartialCharge FpDensityMorgan1 FpDensityMorgan2 FpDensityMorgan3 BalabanJ BertzCT Chi0 Chi0n Chi0v Chi1 Chi1n Chi1v Chi2n Chi2v Chi3n Chi3v Chi4n Chi4v HallKierAlpha Ipc Kappa1 Kappa2 Kappa3 LabuteASA PEOE_VSA1 PEOE_VSA10 PEOE_VSA11 PEOE_VSA12 PEOE_VSA13 PEOE_VSA14 PEOE_VSA2 PEOE_VSA3 PEOE_VSA4 PEOE_VSA5 PEOE_VSA6 PEOE_VSA7 PEOE_VSA8 PEOE_VSA9 SMR_VSA1 SMR_VSA10 SMR_VSA2 SMR_VSA3 SMR_VSA4 SMR_VSA5 SMR_VSA6 SMR_VSA7 SMR_VSA8 SMR_VSA9 SlogP_VSA1 SlogP_VSA10 SlogP_VSA11 SlogP_VSA12 SlogP_VSA2 SlogP_VSA3 SlogP_VSA4 SlogP_VSA5 SlogP_VSA6 SlogP_VSA7 SlogP_VSA8 SlogP_VSA9 TPSA EState_VSA1 EState_VSA10 EState_VSA11 EState_VSA2 EState_VSA3 EState_VSA4 EState_VSA5 EState_VSA6 EState_VSA7 EState_VSA8 EState_VSA9 VSA_EState1 VSA_EState10 VSA_EState2 VSA_EState3 VSA_EState4 VSA_EState5 VSA_EState6 VSA_EState7 VSA_EState8 VSA_EState9 FractionCSP3 HeavyAtomCount NHOHCount NOCount NumAliphaticCarbocycles NumAliphaticHeterocycles NumAliphaticRings NumAromaticCarbocycles NumAromaticHeterocycles NumAromaticRings NumHAcceptors NumHDonors NumHeteroatoms NumRotatableBonds NumSaturatedCarbocycles NumSaturatedHeterocycles NumSaturatedRings RingCount MolLogP MolMR fr_Al_COO fr_Al_OH fr_Al_OH_noTert fr_ArN fr_Ar_COO fr_Ar_N fr_Ar_NH fr_Ar_OH fr_COO fr_COO2 fr_C_O fr_C_O_noCOO fr_C_S fr_HOCCN fr_Imine fr_NH0 fr_NH1 fr_NH2 fr_N_O fr_Ndealkylation1 fr_Ndealkylation2 fr_Nhpyrrole fr_SH fr_aldehyde fr_alkyl_carbamate fr_alkyl_halide fr_allylic_oxid fr_amide fr_amidine fr_aniline fr_aryl_methyl fr_azide fr_azo fr_barbitur fr_benzene fr_benzodiazepine fr_bicyclic fr_diazo fr_dihydropyridine fr_epoxide fr_ester fr_ether fr_furan fr_guanido fr_halogen fr_hdrzine fr_hdrzone fr_imidazole fr_imide fr_isocyan fr_isothiocyan fr_ketone fr_ketone_Topliss fr_lactam fr_lactone fr_methoxy fr_morpholine fr_nitrile fr_nitro fr_nitro_arom fr_nitro_arom_nonortho fr_nitroso fr_oxazole fr_oxime fr_para_hydroxylation fr_phenol fr_phenol_noOrthoHbond fr_phos_acid fr_phos_ester fr_piperdine fr_piperzine fr_priamide fr_prisulfonamd fr_pyridine fr_quatN fr_sulfide fr_sulfonamd fr_sulfone fr_term_acetylene fr_tetrazole fr_thiazole fr_thiocyan fr_thiophene fr_unbrch_alkane fr_urea
feature_infos=[0:18.567747599856183] [-10.842592592592592:2] [0:18.567747599856183] [0:5.9324845679012341] [0.0088447781517302006:0.94821572787652675] [18.015000000000001:1457.3970000000013] [15.999000000000001:1372.7249999999997] [18.010564683999998:1456.4334780079987] [8:556] [0:2] [-0.41150952193742257:3] [-1:0.0022158962649435] [0.048073426352712799:3] [0.00066359431728740001:1] [0.1142857142857142:2] [0.18571428571428569:2.75] [0.25714285714285712:3.4705882352941178] [-1.8604928223111567e-05:6.9965981263248223] [0:6875.6644413084887] [0:73.703130675425825] [0.5:54.171192521233401] [0.5:54.171192521233401] [0:46.281686631621525] [0:32.226972310369831] [0:34.527602125292859] [0:31.42761382859803] [0:31.42761382859803] [0:30.76638250204951] [0:32.89281397469523] [0:32.755534350185435] [0:33.346441101064961] [-10.900000000000007:9.6600000000000001] [0:2.8822154720093242e+24] [0.96000000000000163:88.549999999999997] [-27.040000000000028:71.804258511918704] [-104.04000000000011:952.32444444444366] [6.8492311883180896:558.832973909217] [0:164.22168869085701] [0:146.49519330595925] [0:98.450610274755178] [0:70.886156752218071] [0:49.552358910156691] [0:308.30720943771973] [0:67.969150129926774] [0:70.840204236069525] [0:114.15079123954534] [0:135.85160681701026] [0:334.38563996891691] [0:350.19454156162811] [0:180.551069614814] [0:144.22132094855431] [0:379.26928620635988] [0:269.31121072323958] [0:31.571349328430919] [0:83.139555839760774] [0:106.52230883090506] [0:379.3313913293988] [0:208.26660284741371] [0:293.00568960588146] none [0:143.73779583209765] [0:365.44950940077024] [0:114.15079123954534] [0:143.73779583209765] [0:151.78155071495962] [0:370.26556943217889] [0:130.86727697579462] [0:106.52230883090506] [0:379.3313913293988] [0:237.1102216826086] [0:40.181066509930609] [0:291.56501669002751] none [0:886.66000000000065] [0:250.7336324426154] [0:128.84639300252971] [0:52.684980572097849] [0:330.93313608768153] [0:169.10904653341558] [0:183.25317936555217] [0:356.68190761728602] [0:313.81882265681548] [0:191.90447185042419] [0:248.66669722107056] [0:159.91339215192187] none [-48.174175098704914:56.526134679180302] none none none [0:82.288062759826161] [0:1.2556221655328801] none [-4.2454863473167039:343.99897387064203] [-97.418794350821955:272.16666666666657] [0:1] [1:97] [0:38] [0:50] [0:20] [0:22] [0:22] [0:26] [0:13] [0:26] [0:36] [0:34] [0:53] [0:67] [0:9] [0:22] [0:22] [0:34] [-35.784600000000005:22.566100000000009] [3.6137999999999999:353.4155000000012] [0:8] [0:18] [0:18] [0:4] [0:8] [0:14] [0:6] [0:16] [0:8] [0:8] [0:14] [0:12] [0:4] [0:2] [0:4] [0:18] [0:14] [0:8] [0:6] [0:6] [0:4] [0:6] [0:3] [0:4] [0:5] [0:26] [0:26] [0:12] [0:4] [0:11] [0:12] [0:4] [0:4] [0:2] [0:18] [0:1] [0:27] [0:1] [0:2] [0:3] [0:11] [0:18] [0:4] [0:4] [0:28] [0:4] [0:4] [0:4] [0:6] [0:2] [0:2] [0:8] [0:8] [0:2] [0:6] [0:11] [0:4] [0:6] [0:6] [0:6] [0:4] [0:3] [0:6] [0:3] [0:8] [0:16] [0:16] [0:6] [0:6] [0:6] [0:6] [0:4] none [0:6] [0:4] [0:8] [0:4] [0:2] [0:2] [0:3] [0:4] [0:1] [0:6] [0:65] [0:4]
tree_sizes=2983 3085 3080 3078 3087 3102 3081 3091 3072 3117 3088 3084 3111 3109 3113 3118 3118 3112 3151 3109 3142 3098 3102 3122 3120 3150 3124 3120 3107 3126 3144 3135 3151 3147 3136 3123 3166 3144 3104 3152 3124 3142 3170 3105 3143 3155 3172 3108 3166 3154 3116 3099 3163 3117 3100 3160 3168 3172 3148 3112 3151 3174 3169 3160 3148 3138 3125 3182 3091 3133 3180 3178 3110 3157 3142 3160 3173 3126 3114 3174 3150 3119 3074 3164 3116 3178 3108 3199 3166 3156 3104 3175 3141 3057 3196 3181 3156 3122 3194 3153

Tree=0
num_leaves=31
num_cat=0
split_feature=113 113 113 123 124 73 113 113 113 124 115 113 113 57 113 124 17 124 57 113 42 184 113 57 113 113 124 135 155 113
split_gain=3.03494e+06 874773 753564 274623 262639 193117 168505 126501 120609 120021 65682.8 45566.1 38000.4 36019.8 32754.9 31440.4 28588.1 50104.5 24645.1 24329.8 22658.2 19659.6 19550.9 17103.8 16881.2 15988.6 13394 12760.1 12079 11407.6
threshold=2.824685000000001 0.36630000000000068 4.8612100000000042 1.0000000180025095e-35 1.0000000180025095e-35 229.11499999999998 6.7756100000000066 1.7873499999999998 3.8344000000000027 1.0000000180025095e-35 1.0000000180025095e-35 -3.3114999999999957 9.4356500000000008 18.264934214704514 -1.2052549999999995 1.0000000180025095e-35 0.86827711030182908 1.5000000000000002 12.876496700483878 5.7246100000000055 13.533451231035812 1.0000000180025095e-35 1.0942099999999997 19.549058992321036 2.3071400000000004 3.3127000000000031 1.5000000000000002 1.0000000180025095e-35 1.0000000180025095e-35 3.817300000000003
decision_type=2 2 2 2 2 2 2 2 2 2 2 2 2 2 2 2 2 2 2 2 2 2 2 2 2 2 2 2 2 2
left_child=1 5 4 7 8 10 9 22 21 13 14 -7 15 19 -1 23 -5 -18 -10 -4 -13 25 -3 -8 -9 -2 -12 -20 -22 -6
right_child=2 3 6 16 29 11 12 24 18 -11 26 20 -14 -15 -16 -17 17 -19 27 -21 28 -23 -24 -25 -26 -27 -28 -29 -30 -31
leaf_value=1.9486181932716748 2.4969627135628309 2.243501516574935 2.7187803764141023 2.2769830436525762 2.2684306785107298 1.2642391371485695 2.9438103789133834 2.3851754993272518 2.6360625912915454 2.4946579265971538 1.8850333807823882 1.8088241638208524 3.1334455702410842 2.6664544464883049 2.140361424794472 2.674716480232354 2.1139598660574541 1.7576347558931777 2.5913904191232646 2.8090421258668865 1.3327005625274284 2.444717873022944 2.3228188099896938 2.8131104589857054 2.4383883361394947 2.5449232599451621 1.6296941867708226 2.5190413035473007 1.9128507127937668 2.3644224125378215
leaf_weight=11944 133277 47545 82923 8085 25558 3072 25759 104851 126776 27013 9128 6415 5604 81549 35063 7823 31041 4521 109569 46670 1872 37354 89718 16379 138191 145277 2651 31353 444 24011
leaf_count=11944 133277 47545 82923 8085 25558 3072 25759 104851 126776 27013 9128 6415 5604 81549 35063 7823 31041 4521 109569 46670 1872 37354 89718 16379 138191 145277 2651 31353 444 24011
internal_value=2.4906 2.29055 2.59733 2.34482 2.53592 1.96461 2.72972 2.37209 2.55469 2.69313 2.03873 1.59548 2.88652 2.71852 2.09164 2.85883 2.10725 2.06866 2.60407 2.75129 1.71203 2.51284 2.29534 2.89301 2.41543 2.52198 1.82757 2.57529 1.44392 2.31493
internal_weight=0 494541 926895 423952 633175 70589 293720 380305 583606 238155 58786 11803 55565 211142 47007 49961 43647 35562 267698 129593 8731 315908 137263 42138 243042 278554 11779 140922 2316 49569
internal_count=1421436 494541 926895 423952 633175 70589 293720 380305 583606 238155 58786 11803 55565 211142 47007 49961 43647 35562 267698 129593 8731 315908 137263 42138 243042 278554 11779 140922 2316 49569
is_linear=0
shrinkage=1


Tree=1
num_leaves=31
num_cat=0
split_feature=113 113 113 123 123 113 73 124 113 113 115 113 124 113 57 113 17 124 184 113 113 42 57 97 184 123 113 182 97 113
split_gain=2.46171e+06 678954 647453 217522 209972 157146 148227 102460 98193.1 90935 52076.8 42057.5 33372.8 30974.4 29413 25779.8 23790.5 40875.3 20182.5 19066.8 16966.7 16905.9 16501.7 15280.7 14947.5 12630.4 12298.3 11680.8 11520.1 10393.4
threshold=2.7340000000000018 0.25265999999999983 4.6950000000000038 1.0000000180025095e-35 1.0000000180025095e-35 6.4140500000000076 247.10000000000005 1.0000000180025095e-35 1.5971499999999994 3.6843100000000022 1.0000000180025095e-35 8.5854500000000069 1.0000000180025095e-35 -3.3114999999999957 19.549058992321036 -1.6225999999999992 0.86827711030182908 1.5000000000000002 1.0000000180025095e-35 5.4767500000000053 2.2169500000000002 17.897696175377515 19.549058992321036 5.5000000000000009 1.0000000180025095e-35 1.5000000000000002 4.2554500000000042 1.0000000180025095e-35 5.5000000000000009 1.5625000000000004
decision_type=2 2 2 2 2 2 2 2 2 2 2 2 2 2 2 2 2 2 2 2 2 2 2 2 2 2 2 2 2 2
left_child=1 6 4 8 9 7 10 14 23 24 15 12 22 -8 19 -1 -5 29 26 -4 -10 -15 -7 -3 28 -12 -11 -17 -2 -18
right_child=2 3 5 16 -6 11 13 -9 20 18 25 -13 -14 21 -16 27 17 -19 -20 -21 -22 -23 -24 -25 -26 -27 -28 -29 -30 -31
leaf_value=-0.52824872748370566 0.020641189086248277 -0.18298444063445404 0.18634491991918445 -0.19684694829525529 -0.16897121279738747 0.37082132624020353 -1.126437607090613 -0.015506999008462436 -0.10763142205819246 0.081694393195776691 -0.55580322211993871 0.50617011841917192 0.12971748800484245 -0.64963328569869061 0.13880776457274796 -0.32736254686545169 -0.42366066545738335 -0.66975063209048136 0.01812340214562853 0.25954849820797249 -0.055080110594878343 -1.0266977152060695 0.25860911142085685 -0.33803875016080559 -0.051615159920137946 -0.80232703402885575 0.1276862158880708 -0.71255011499880194 -0.15688758585102225 -0.30202691589834363
leaf_weight=8765 256962 105097 92111 7820 48087 34916 2849 27520 114504 149276 8937 11474 9925 5312 77647 33897 11245 4537 34712 57975 132564 1532 20980 6765 34851 2708 95234 806 3708 18720
leaf_count=8765 256962 105097 92111 7820 48087 34916 2849 27520 114504 149276 8937 11474 9925 5312 77647 33897 11245 4537 34712 57975 132564 1532 20980 6765 34851 2708 95234 806 3708 18720
internal_value=0 -0.188418 0.0919152 -0.139912 0.0317619 0.204576 -0.48875 0.166748 -0.114629 0.0485567 -0.425325 0.329497 0.298699 -0.849373 0.188773 -0.375012 -0.354331 -0.390026 0.0894778 0.214622 -0.0794351 -0.734038 0.328704 -0.192362 0.00989243 -0.613131 0.0996077 -0.336309 0.0181159 -0.347673
internal_weight=0 466058 955378 401252 622830 332548 64806 255253 358930 574743 55113 77295 65821 9693 227733 43468 42322 34502 279222 150086 247068 6844 55896 111862 295521 11645 244510 34703 260670 29965
internal_count=1421436 466058 955378 401252 622830 332548 64806 255253 358930 574743 55113 77295 65821 9693 227733 43468 42322 34502 279222 150086 247068 6844 55896 111862 295521 11645 244510 34703 260670 29965
is_linear=0
shrinkage=0.1


Tree=2
num_leaves=31
num_cat=0
split_feature=113 113 113 123 124 73 113 113 113 124 115 113 113 113 57 17 124 124 57 123 182 113 135 97 97 97 184 17 57 132
split_gain=2.00241e+06 634757 451940 177449 170696 158655 95458.1 80846.7 78576.3 70977.5 49141.9 45049.8 26425.6 24471.6 19719.4 17888.2 30486.4 17650.2 17093.9 17043.3 20730.7 15881.1 14025 13203.3 13145.2 13116.1 13037.1 11574.6 11253.9 10461.1
threshold=2.997520000000002 0.71999999999999953 5.0986000000000073 1.0000000180025095e-35 1.0000000180025095e-35 195.82500000000002 7.3370700000000051 4.0403600000000042 2.0043450000000003 1.0000000180025095e-35 1.0000000180025095e-35 -2.2122799999999905 -0.5935499999999998 6.0201700000000065 19.549058992321036 0.86827711030182908 1.5000000000000002 1.0000000180025095e-35 12.876496700483878 1.5000000000000002 1.5000000000000002 9.4356500000000008 1.0000000180025095e-35 14.500000000000002 5.5000000000000009 4.5000000000000009 1.0000000180025095e-35 1.0796391975470676 19.549058992321036 2.5000000000000004
decision_type=2 2 2 2 2 2 2 2 2 2 2 2 2 2 2 2 2 2 2 2 2 2 2 2 2 2 2 2 2 2
left_child=1 5 4 8 7 10 9 18 25 13 12 23 -1 22 -9 -5 -17 21 -2 20 29 -8 -4 -7 26 -3 -10 -12 -15 -13
right_child=2 3 6 15 -6 11 17 14 24 -11 27 19 -14 28 -16 16 -18 -19 -20 -21 -22 -23 -24 -25 -26 -27 -28 -29 -30 -31
leaf_value=-0.38868455050578699 0.057190732942773027 -0.12751022642862922 0.19263981494000001 -0.15852142344316408 -0.1277295514558586 -0.79318574474086534 0.36413530484362405 0.12792916361888107 -0.034679207927402721 0.028569473642707111 -0.34070664547175289 -0.39625129365050604 -0.24498424553064174 0.28608145015624831 0.068963825522769667 -0.28798875292316589 -0.57458211978654927 0.19930242443685062 0.011217772057362158 -0.82124897453744161 -0.97776875275373465 0.56315202220530802 0.090202847936535879 -1.1427613983345442 -0.2094330865081839 -0.23562699189808628 -0.10587348231534094 -0.55938406940402574 0.20022208671095365 -0.66600407260851235
leaf_weight=18016 147846 146116 102980 8297 50017 4768 23324 164074 221116 25486 3263 7582 44176 42483 86677 31868 4201 5292 178560 1823 800 4842 15359 1397 4835 12154 29107 9374 23829 1774
leaf_count=18016 147846 146116 102980 8297 50017 4768 23324 164074 221116 25486 3263 7582 44176 42483 86677 31868 4201 5292 178560 1823 800 4842 15359 1397 4835 12154 29107 9374 23829 1774
internal_value=0 -0.149252 0.0943857 -0.100863 0.0494875 -0.387467 0.209983 0.0648453 -0.0804627 0.185004 -0.323142 -0.652754 -0.286612 0.206596 0.107547 -0.290914 -0.321369 0.366865 0.0320413 -0.539713 -0.489177 0.398348 0.179345 -0.8724 -0.0461166 -0.135813 -0.0429608 -0.502919 0.255228 -0.447399
internal_weight=0 550667 870769 457694 627174 92973 243595 577157 413328 210137 74829 18144 62192 184651 250751 44366 36069 33458 326406 11979 10156 28166 118339 6165 255058 158270 250223 12637 66312 9356
internal_count=1421436 550667 870769 457694 627174 92973 243595 577157 413328 210137 74829 18144 62192 184651 250751 44366 36069 33458 326406 11979 10156 28166 118339 6165 255058 158270 250223 12637 66312 9356
is_linear=0
shrinkage=0.1


Tree=3
num_leaves=31
num_cat=0
split_feature=113 113 113 124 123 113 73 124 113 113 113 115 124 184 113 17 124 57 182 113 113 97 57 124 1 184 47 17 17 124
split_gain=1.62989e+06 460168 428754 143812 141506 113162 86397.6 67650.8 67500.5 64615.3 34266.2 28432.5 23853 22005.4 19144.3 17840.6 29012.6 16867.6 14872.4 13645.8 13110.2 12752.2 12228.2 12059.3 11830.8 10890.4 10799.5 10667.4 9564.54 10071.1
threshold=2.625995000000001 4.6069500000000048 -1.0000000180025095e-35 1.0000000180025095e-35 1.0000000180025095e-35 6.201890000000005 247.10000000000005 1.0000000180025095e-35 1.4490500000000004 3.5056700000000025 8.1198600000000098 1.0000000180025095e-35 1.0000000180025095e-35 1.0000000180025095e-35 -3.3114999999999957 0.86827711030182908 1.5000000000000002 19.549058992321036 1.5000000000000002 5.3749100000000061 -1.6225999999999992 5.5000000000000009 24.948187092153624 2.5000000000000004 -5.1129004826960358 1.0000000180025095e-35 149.02543809862206 1.2057370721827725 1.0426711894739429 1.5000000000000002
decision_type=2 2 2 2 2 2 2 2 2 2 2 2 2 2 2 2 2 2 2 2 2 2 2 2 2 2 2 2 2 2
left_child=2 4 6 8 9 7 11 13 18 27 12 20 22 19 -8 -5 -17 -11 -4 -3 -1 25 -7 24 -16 -10 -12 -2 -13 -30
right_child=1 5 3 15 -6 10 14 -9 21 17 26 28 -14 -15 23 16 -18 -19 -20 -21 -22 -23 -24 -25 -26 -27 -28 -29 29 -31
leaf_value=-0.43137913506851028 -0.087833285505938108 0.13735669468951645 -0.16910766146495834 -0.16253339887906273 -0.14378099469162597 0.27782099337377136 -0.9208186295291455 -0.020280946520323043 -0.061954905853162656 0.081343034925333069 0.36493787494784574 -0.36307001396426669 0.092177790914924854 0.066065828042152205 -0.9355613577848193 -0.29317903930649963 -0.56011345031601467 0.032978128106613915 -0.84563917760834384 0.19078000018068667 -0.28983628051404281 -0.21632256677428485 0.18175998832992113 -1.1934361859709917 -0.52111794651829457 -0.1304445071370379 0.70182126662933197 0.0021577789610966766 -0.51396111867292671 -0.79561340393976865
leaf_weight=8765 13888 126725 100128 7803 48796 47196 2849 27443 204726 203566 15938 2863 11073 30222 794 29411 4726 111665 326 76781 25823 6090 18425 334 5198 26186 1012 255578 5451 1655
leaf_count=8765 13888 126725 100128 7803 48796 47196 2849 27443 204726 203566 15938 2863 11073 30222 794 29411 4726 111665 326 76781 25823 6090 18425 334 5198 26186 1012 255578 5451 1655
internal_value=0 0.0708889 -0.161754 -0.124311 0.0198217 0.162065 -0.426132 0.128249 -0.102606 0.0334752 0.256378 -0.368591 0.22794 0.145688 -0.705572 -0.298952 -0.330134 0.0642106 -0.171303 0.157513 -0.325705 -0.0734888 0.250849 -0.608633 -0.576036 -0.0697218 0.385052 -0.00248027 -0.517385 -0.579558
internal_weight=0 988308 433128 379396 633493 354815 53732 261171 337456 584697 93644 44557 76694 233728 9175 41940 34137 315231 100454 203506 34588 237002 65621 6326 5992 230912 16950 269466 9969 7106
internal_count=1421436 988308 433128 379396 633493 354815 53732 261171 337456 584697 93644 44557 76694 233728 9175 41940 34137 315231 100454 203506 34588 237002 65621 6326 5992 230912 16950 269466 9969 7106
is_linear=0
shrinkage=0.1


Tree=4
num_leaves=31
num_cat=0
split_feature=113 113 113 73 123 124 113 113 113 124 124 113 113 57 135 156 42 135 97 17 124 97 123 57 17 73 113 113 97 13
split_gain=1.32482e+06 433408 289899 115791 114382 112636 60055.8 58550.8 49630.6 41190.9 35906.5 33831.2 19096.8 17109.3 16563.6 15803.5 15602.1 14565.5 13570.2 11887.5 19126.1 11512.8 11492 11036.4 10600.7 10467.2 10416.5 9655.96 9621.89 9404.24
threshold=3.0454100000000022 0.85944999999999971 5.2463200000000061 188.48000000000005 1.0000000180025095e-35 1.0000000180025095e-35 4.1645500000000046 7.5392600000000076 2.1014000000000008 1.0000000180025095e-35 1.0000000180025095e-35 -2.2122799999999905 -0.5935499999999998 18.264934214704514 1.0000000180025095e-35 2.5000000000000004 13.533451231035812 1.0000000180025095e-35 2.5000000000000004 0.86827711030182908 1.5000000000000002 2.5000000000000004 1.0000000180025095e-35 31.463107939274003 1.0796391975470676 315.7050000000001 9.4356500000000008 6.2644000000000073 5.5000000000000009 0.03458301526866886
decision_type=2 2 2 2 2 2 2 2 2 2 2 2 2 2 2 2 2 2 2 2 2 2 2 2 2 2 2 2 2 10
left_child=1 3 4 10 6 8 17 9 28 13 12 25 -1 27 21 16 -13 18 -2 -7 -21 -8 23 26 -12 -5 -9 -4 -3 -20
right_child=2 5 7 11 -6 19 14 22 -10 -11 24 15 -14 -15 -16 -17 -18 -19 29 20 -22 -23 -24 -25 -26 -27 -28 -29 -30 -31
leaf_value=-0.31223252123799838 0.047889166385052945 -0.098231892992435718 0.18155034146789964 -0.60305216399118822 -0.098316009494046286 -0.12213097948073381 0.11607818274092202 0.34090010409784632 -0.032790496537466719 0.034995883735805748 -0.25408492082566897 -0.41912545352891756 -0.19010636861739225 0.13607495766931299 0.02721678575997229 -0.21816859014419074 -0.70393316524284266 -0.025177082612679785 -0.83507772575329686 -0.22809371867292516 -0.46054238039404416 0.052021577635576369 0.16614381366658082 0.21545836233851801 -0.44305458512966961 -0.86360046229253884 0.52967952228515447 0.2487546870735946 -0.22255949689044457 -0.0054941250711460022
leaf_weight=17007 252675 161712 69589 3912 51371 8456 175721 14482 250543 23534 4087 8619 51809 64106 30724 2836 2476 41116 137 31807 3983 33389 4426 5341 10848 2545 3662 30861 6474 53188
leaf_count=17007 252675 161712 69589 3912 51371 8456 175721 14482 250543 23534 4087 8619 51809 64106 30724 2836 2476 41116 137 31807 3983 33389 4426 5341 10848 2545 3662 30861 6474 53188
internal_value=0 -0.118493 0.0786574 -0.302818 0.0447714 -0.0770314 0.0572947 0.178797 -0.0609978 0.158741 -0.250792 -0.516535 -0.220288 0.176438 0.0957768 -0.428835 -0.482684 0.0307061 0.0382149 -0.228768 -0.253962 0.10585 0.313952 0.341808 -0.391343 -0.705746 0.379001 0.202197 -0.103018 -0.00762545
internal_weight=0 567114 854322 104139 638321 462975 586950 216001 418729 188090 83751 20388 68816 164556 239834 13931 11095 347116 306000 44246 35790 209110 27911 23485 14935 6457 18144 100450 168186 53325
internal_count=1421436 567114 854322 104139 638321 462975 586950 216001 418729 188090 83751 20388 68816 164556 239834 13931 11095 347116 306000 44246 35790 209110 27911 23485 14935 6457 18144 100450 168186 53325
is_linear=0
shrinkage=0.1


Tree=5
num_leaves=31
num_cat=0
split_feature=113 113 113 124 123 113 73 124 113 113 113 57 115 124 17 17 124 58 182 189 48 97 95 17 135 1 47 124 189 97
split_gain=1.07969e+06 326022 273790 92928.2 92533.5 85186.4 52897.5 47693.6 44677.9 40617.7 23908.5 19861.4 17505.1 14887.4 13168.3 12736.5 20330.5 12465.8 12032.1 10464.7 10099.8 9926.52 9591.71 9507.96 9503.9 9332.48 9221.53 9088.62 8741.65 8705.4
threshold=2.5300000000000007 4.4571500000000048 -0.17745000000000014 1.0000000180025095e-35 1.0000000180025095e-35 6.1404500000000075 247.10000000000005 1.0000000180025095e-35 1.2864850000000003 3.4251500000000026 7.7962600000000082 12.876496700483878 1.0000000180025095e-35 1.0000000180025095e-35 1.2836183136120416 0.86827711030182908 1.5000000000000002 1.0000000180025095e-35 1.0000000180025095e-35 1.0000000180025095e-35 73.927767094800828 4.5000000000000009 0.43405797101449278 1.1285183405303336 1.0000000180025095e-35 -5.525104438594898 149.02543809862206 2.5000000000000004 1.0000000180025095e-35 3.5000000000000004
decision_type=2 2 2 2 2 2 2 2 2 2 2 2 2 2 2 2 2 2 2 2 2 2 2 2 2 2 2 2 2 2
left_child=2 4 6 8 9 7 12 11 18 24 13 -3 -1 23 -11 -5 -17 -8 -4 20 -13 22 -10 -7 29 -19 -12 -27 -16 -2
right_child=1 5 3 15 -6 10 17 -9 21 14 26 19 -14 -15 28 16 -18 25 -20 -21 -22 -23 -24 -25 -26 27 -28 -29 -30 -31
leaf_value=-0.27622960576699318 0.0053190667344813532 0.14085627248483443 -0.14731097466374141 -0.13333999983686107 -0.12369027550064693 0.097252259482469905 -0.81935434992444545 -0.020267077761435225 -0.046560522361460327 -0.017137481382126202 0.28306502947792828 0.10190399659282559 -0.43547974304853182 0.071921284462075893 0.05376654991846197 -0.24480197098314505 -0.46750240252497388 -0.8665414762802881 -0.49813213196029382 -0.19249157685095841 0.03154115020635271 -0.15337906402754742 -0.090585782975877549 0.2121359176250282 -0.059172740991831965 -0.45885983422691434 0.5877287898974175 -1.0246379122238032 -0.30978362170718104 -0.06372143847592647
leaf_weight=29693 218518 128853 84989 7587 47862 8234 1800 30029 142017 29760 21338 110084 8993 10967 274255 28392 4791 716 989 1335 25040 12545 75954 57587 31164 6012 1042 298 663 19929
leaf_count=29693 218518 128853 84989 7587 47862 8234 1800 30029 142017 29760 21338 110084 8993 10967 274255 28392 4791 716 989 1335 25040 12545 75954 57587 31164 6012 1042 298 663 19929
internal_value=0 0.0549927 -0.138123 -0.108131 0.00989893 0.126107 -0.363648 0.0991802 -0.0898259 0.0210324 0.206299 0.1127 -0.313249 0.179791 0.0460498 -0.25023 -0.276956 -0.584556 -0.151346 0.0861124 0.088865 -0.0668799 -0.0619015 0.197764 -0.00723877 -0.524402 0.29725 -0.48558 0.0528898 -0.000451223
internal_weight=0 1.01666e+06 404776 357264 622151 394509 47512 295341 316494 574289 99168 265312 38686 76788 304678 40770 33183 8826 85978 136459 135124 230516 217971 65821 269611 7026 22380 6310 274918 238447
internal_count=1421436 1016660 404776 357264 622151 394509 47512 295341 316494 574289 99168 265312 38686 76788 304678 40770 33183 8826 85978 136459 135124 230516 217971 65821 269611 7026 22380 6310 274918 238447
is_linear=0
shrinkage=0.1


Tree=6
num_leaves=31
num_cat=0
split_feature=113 113 113 124 124 97 113 113 113 124 115 113 17 42 184 124 189 113 57 17 182 132 113 13 113 13 123 113 188 53
split_gain=878189 266877 218387 76576.1 74128.7 67595.9 46172.6 40989.1 35532.8 30662.1 22754.7 20059.5 14923.2 14206.7 13812.2 11297.1 11770.2 11505.6 11053.9 10437 10270.2 9744.14 9333.7 9285.25 9147.33 8709.51 8668.88 8019.35 7953.95 7950.16
threshold=2.8779550000000014 0.5507499999999993 5.0419500000000061 1.0000000180025095e-35 1.0000000180025095e-35 6.5000000000000009 7.0234700000000068 3.9013300000000029 1.8707850000000004 1.0000000180025095e-35 1.0000000180025095e-35 -3.3114999999999957 1.275863033381887 13.533451231035812 1.0000000180025095e-35 1.0000000180025095e-35 1.5000000000000002 9.4356500000000008 12.876496700483878 0.86827711030182908 1.0000000180025095e-35 1.0000000180025095e-35 1.84276 0.13966759888757577 5.8120900000000066 0.14184729910806962 2.5000000000000004 -2.2122799999999905 1.5000000000000002 5.4010674639650667
decision_type=2 2 2 2 2 2 2 2 2 2 2 2 2 2 2 2 2 2 2 2 2 2 2 8 2 8 2 2 2 2
left_child=1 5 3 7 8 10 9 18 29 12 20 -7 -4 21 19 16 17 -8 -2 -9 27 -13 -6 -20 -14 -10 -12 -1 -19 -3
right_child=2 4 6 -5 22 11 15 14 25 -11 26 13 24 -15 -16 -17 -18 28 23 -21 -22 -23 -24 -25 -26 -27 -28 -29 -30 -31
leaf_value=-0.32851932882059454 0.034499690830834998 -0.095135634072628206 0.071767474580899576 -0.088198771982365975 -0.25020028207068939 -0.66336618006696724 0.23530244649537257 -0.039277999669375493 -0.10826858473847714 0.013780974310018452 -0.33369409238031345 -0.17273828472826866 0.12534899452038714 -0.62096608317375002 0.0080433199646025005 0.11314148102690642 -0.41353825929885107 0.45243515270337753 -0.083195044614801761 0.078298556076284137 -0.45633675754000164 -0.39496213404057129 -0.15662287031593977 0.003716621875788985 0.17553103364972472 -0.031316115748251216 -0.81509368865623189 -0.17629515141737373 0.068504584761525419 -0.23873195438774203
leaf_weight=3734 144059 138477 33752 51889 18866 3376 32478 7796 15721 24928 11195 2495 91422 2279 35708 6966 264 4117 13292 239010 1461 9434 24502 163459 60272 228216 387 47294 621 3966
leaf_count=3734 144059 138477 33752 51889 18866 3376 32478 7796 15721 24928 11195 2495 91422 2279 35708 6966 264 4117 13292 239010 1461 9434 24502 163459 60272 228216 387 47294 621 3966
internal_value=0 -0.104852 0.0589228 0.0283729 -0.0733632 -0.270578 0.137475 0.0383986 -0.0594488 0.117909 -0.222913 -0.444254 0.131907 -0.39219 0.0661742 0.230085 0.25182 0.256539 0.0139387 0.0745846 -0.194919 -0.348483 -0.197331 -0.0028193 0.145288 -0.0362755 -0.34978 -0.187434 0.402114 -0.0991337
internal_weight=0 511403 910033 655213 429748 81655 254820 603324 386380 210374 64071 17584 185446 14208 282514 44446 37480 37216 320810 246806 52489 11929 43368 176751 151694 243937 11582 51028 4738 142443
internal_count=1421436 511403 910033 655213 429748 81655 254820 603324 386380 210374 64071 17584 185446 14208 282514 44446 37480 37216 320810 246806 52489 11929 43368 176751 151694 243937 11582 51028 4738 142443
is_linear=0
shrinkage=0.1


Tree=7
num_leaves=31
num_cat=0
split_feature=113 113 113 97 123 123 113 113 113 113 124 124 17 17 132 42 42 135 49 113 116 17 124 184 47 17 113 95 53 124
split_gain=717838 251308 147632 71713.3 62672.8 59482 34530.2 28503.6 25416.4 25115.6 22575.1 16340.5 13278.3 11854.8 11007 12741.9 10574.8 10185.9 9913.57 9598.24 8862.39 8432.53 13450.5 8272.89 7979.45 7892.66 9498.4 7598.55 7479.53 7462.39
threshold=3.1789100000000023 0.98525000000000007 5.5168800000000058 5.5000000000000009 1.0000000180025095e-35 1.0000000180025095e-35 4.3133600000000039 2.2399600000000004 7.5392600000000076 -1.6225999999999992 1.0000000180025095e-35 1.0000000180025095e-35 1.2836183136120416 1.1285183405303336 3.5000000000000004 11.938452408796641 19.66877412963051 1.0000000180025095e-35 17.638639112147114 -0.86759999999999415 1.5000000000000002 0.86827711030182908 1.5000000000000002 1.0000000180025095e-35 128.93966785656829 0.86827711030182908 -3.3114999999999957 0.45049019607843138 10.744871186056528 1.5000000000000002
decision_type=2 2 2 2 2 2 2 2 2 2 2 2 2 2 2 2 2 2 2 2 2 2 2 2 2 2 2 2 2 2
left_child=1 3 5 10 7 6 13 27 11 14 19 17 -8 -2 15 -5 20 -4 -15 -1 -11 -6 -23 28 -10 26 -12 -3 -9 -27
right_child=2 4 8 9 21 -7 12 23 24 16 25 -13 -14 18 -16 -17 -18 -19 -20 -21 -22 22 -24 -25 -26 29 -28 -29 -30 -31
leaf_value=-0.23173686403814511 -0.059308823314905113 -0.054524719113618739 0.15122970928828064 -0.35745569066592808 -0.073042029766671276 -0.061947253409449038 0.018814267205050222 -0.01084780056221952 0.21649724900893041 -0.31611669557506633 -0.42415927556884619 0.039847971188624952 0.087537540929607097 0.054921127344285441 -0.75600524781225831 -0.61796706427784753 -0.58319972927158925 0.066825785112232292 0.019185299377950001 -0.13250089645540197 -0.15961405883979218 -0.16212306893489772 -0.35732191615212294 -0.067033869257284037 0.42313975565484152 -0.29103520928830146 -0.082179380623220749 -0.096715837937957932 -0.38729617178179537 -0.51168600186441648
leaf_weight=11567 14668 123398 108851 5707 8615 52856 32569 231273 25897 10881 1089 18664 205574 124056 1296 2798 1109 16460 207428 61931 5421 33277 3949 30593 2014 8646 3195 65262 529 1863
leaf_count=11567 14668 123398 108851 5707 8615 52856 32569 231273 25897 10881 1089 18664 205574 124056 1296 2798 1109 16460 207428 61931 5421 33277 3949 30593 2014 8646 3195 65262 529 1863
internal_value=0 -0.0816802 0.0618276 -0.214549 -0.050795 0.0396403 0.04883 -0.0394731 0.144072 -0.356481 -0.170804 0.127141 0.0781388 0.0286664 -0.484528 -0.443159 -0.284401 0.140143 0.0325592 -0.148118 -0.264074 -0.162197 -0.18283 -0.0181575 0.231408 -0.283515 -0.169111 -0.0691196 -0.0117069 -0.330151
internal_weight=0 612399 809037 115503 496896 637151 584295 451055 171886 27212 88291 143975 238143 346152 9801 8505 17411 125311 331484 73498 16302 45841 37226 262395 27911 14793 4284 188660 231802 10509
internal_count=1421436 612399 809037 115503 496896 637151 584295 451055 171886 27212 88291 143975 238143 346152 9801 8505 17411 125311 331484 73498 16302 45841 37226 262395 27911 14793 4284 188660 231802 10509
is_linear=0
shrinkage=0.1


Tree=8
num_leaves=31
num_cat=0
split_feature=113 113 113 97 123 123 42 132 113 113 113 124 124 97 124 135 57 17 64 17 124 189 188 113 13 39 13 58 189 17
split_gain=583172 211754 113362 63685.2 51220.2 43815.2 29196.1 25732.2 23299.1 22976.1 21993.5 14714.4 13935.7 11287.6 10403.2 10396.8 10337 10266.7 9809.6 9103.21 8709.5 8820.81 9022.29 11226.8 8608.1 8083.06 7972.08 7826.57 7332.19 7253.29
threshold=3.2621000000000038 1.0942099999999997 5.4075500000000059 4.5000000000000009 1.0000000180025095e-35 1.0000000180025095e-35 12.80123123712322 3.5000000000000004 2.3906000000000009 7.1696600000000066 4.3746500000000053 1.0000000180025095e-35 1.0000000180025095e-35 3.5000000000000004 1.5000000000000002 1.0000000180025095e-35 19.549058992321036 1.9554635275305585 12.223335066021972 1.248527180930822 1.5000000000000002 1.5000000000000002 1.5000000000000002 9.4356500000000008 0.03458301526866886 23.76399168904992 0.14184729910806962 1.0000000180025095e-35 1.0000000180025095e-35 1.0426711894739429
decision_type=2 2 2 2 2 2 2 2 2 2 2 2 2 2 2 2 2 2 2 2 2 2 2 2 10 2 8 2 2 2
left_child=1 3 5 11 8 10 7 14 26 12 13 28 19 15 27 -2 -12 18 -8 -4 21 22 23 -11 -15 -24 -3 -5 -1 -10
right_child=2 4 9 6 -6 -7 17 -9 29 20 16 -13 -14 24 -16 -17 -18 -19 -20 -21 -22 -23 25 -25 -26 -27 -28 -29 -30 -31
leaf_value=-0.11660788054024396 0.040656223255121665 -0.13392735718471302 0.062109982403250365 -0.33937325005822178 -0.14211170523930672 -0.054363418045720362 -0.24903576256454296 -0.60986034178681603 -0.10472757912994113 0.19423953162550983 0.086368538962358216 -0.23669038325354724 0.027535989210524789 -0.89071615340851129 -0.43434906842627052 -0.014826675083222605 0.03932750466181166 -0.6544035112049319 -0.58813520752470028 0.13154271892689531 -0.1620052699799891 -0.39049997280733995 0.083061122141321359 0.35952350775075687 -0.034405944168339232 -0.47682360472077151 -0.051651858314220346 -0.19532664174672232 -0.31446112528292236 -0.0085735687533751801
leaf_weight=72096 274418 12504 22891 4459 46661 48672 2091 1935 8105 31112 136496 13110 18908 118 2396 38514 71018 2431 1441 107840 675 251 1799 4735 22848 301 202525 24480 1923 244683
leaf_count=72096 274418 12504 22891 4459 46661 48672 2091 1935 8105 31112 136496 13110 18908 118 2396 38514 71018 2431 1441 107840 675 251 1799 4735 22848 301 202525 24480 1923 244683
internal_value=0 -0.0706924 0.0580358 -0.186681 -0.0422042 0.0365328 -0.292477 -0.255956 -0.0322392 0.125573 0.0446742 -0.139043 0.107779 0.0288616 -0.234101 0.0338277 0.0702696 -0.496242 -0.387383 0.119385 0.194069 0.200362 0.20427 0.216072 -0.0388057 0.00281098 -0.0564362 -0.217522 -0.121748 -0.0116565
internal_weight=0 640840 780596 126362 514478 592084 39233 33270 467817 188512 543412 87129 149639 335898 31335 312932 207514 5963 3532 130731 38873 38198 37947 35847 22966 2100 215029 28939 74019 252788
internal_count=1421436 640840 780596 126362 514478 592084 39233 33270 467817 188512 543412 87129 149639 335898 31335 312932 207514 5963 3532 130731 38873 38198 37947 35847 22966 2100 215029 28939 74019 252788
is_linear=0
shrinkage=0.1


Tree=9
num_leaves=31
num_cat=0
split_feature=113 113 113 123 124 113 73 113 124 113 115 135 97 124 124 57 132 97 113 182 189 13 97 182 17 124 184 75 198 135
split_gain=474306 152077 123820 42799.1 40819.5 38093.5 25261.7 22837.4 19996.4 19536.9 14320.6 14287.1 11925.9 10019 9627.48 10634.8 9566.48 9507.33 9369.93 9152.07 8846.99 8620.55 8499.8 8409.78 8283.08 18936.4 8126.6 7636.63 7570.33 7545.84
threshold=2.4510100000000024 4.5212000000000057 -0.36584999999999634 1.0000000180025095e-35 1.0000000180025095e-35 6.5787000000000075 315.7050000000001 3.5543500000000026 1.0000000180025095e-35 1.3681000000000003 1.5000000000000002 1.0000000180025095e-35 2.5000000000000004 2.5000000000000004 1.0000000180025095e-35 24.948187092153624 2.5000000000000004 5.5000000000000009 8.5854500000000069 1.5000000000000002 1.0000000180025095e-35 0.50795913355446409 2.5000000000000004 1.0000000180025095e-35 0.86827711030182908 1.5000000000000002 1.0000000180025095e-35 4.679792734501576 1.0000000180025095e-35 1.0000000180025095e-35
decision_type=2 2 2 2 2 2 2 2 2 2 2 2 2 2 2 2 2 2 2 2 2 8 2 2 2 2 2 2 2 2
left_child=2 3 6 7 9 8 10 17 11 23 16 12 20 21 15 18 19 26 -7 -1 -3 -6 29 28 -5 -26 -2 -14 -4 -9
right_child=1 5 4 24 13 14 -8 22 -10 -11 -12 -13 27 -15 -16 -17 -18 -19 -20 -21 -22 -23 -24 -25 25 -27 -28 -29 -30 -31
leaf_value=-0.19786399807327928 0.0036010578315225552 0.099805758056156421 -0.086035202073151087 0.010572403261585546 -0.1703569608185217 0.17752141594541115 -0.50138794563944189 0.04911653903721714 -0.0027281978060084422 -0.044710773948094681 -0.46913801293926122 0.021012377181195786 -0.0919184453875731 -0.51528052913015976 0.064993437727300291 0.10390115331718695 -0.44902020887350302 -0.14313585926819258 0.30963168318218837 -0.56743699544877335 -0.17229795742674597 0.13334927265405253 -0.0053793209634661384 -0.36624206018052269 -0.082070628587731634 -0.35718183691295957 -0.045372309052115617 0.052856515077661259 -0.17518921306629531 -0.0043314604976529471
leaf_weight=32897 287975 201918 88356 8197 38269 33099 3873 204300 32874 200593 2408 36041 4072 824 10190 16768 1693 4855 6408 684 1202 958 44686 1162 40432 2667 38402 34621 10675 30337
leaf_count=32897 287975 201918 88356 8197 38269 33099 3873 204300 32874 200593 2408 36041 4072 824 10190 16768 1693 4855 6408 684 1202 958 44686 1162 40432 2667 38402 34621 10675 30337
internal_value=0 0.0350431 -0.09522 0.00616182 -0.0753508 0.0857204 -0.258188 0.0135327 0.0710227 -0.0627227 -0.233192 0.0797485 0.0885028 -0.170189 0.154433 0.170628 -0.217085 -0.00422754 0.19895 -0.205392 0.0981955 -0.16294 0.0345934 -0.0987838 -0.0815701 -0.0990947 -0.00216122 0.0376206 -0.0956455 0.0422061
internal_weight=0 1.03904e+06 382392 661851 340837 377193 41555 610555 310728 300786 37682 277854 241813 40051 66465 56275 35274 331232 39507 33581 203120 39227 279323 100193 51296 43099 326377 38693 99031 234637
internal_count=1421436 1039044 382392 661851 340837 377193 41555 610555 310728 300786 37682 277854 241813 40051 66465 56275 35274 331232 39507 33581 203120 39227 279323 100193 51296 43099 326377 38693 99031 234637
is_linear=0
shrinkage=0.1


Tree=10
num_leaves=31
num_cat=0
split_feature=113 113 113 123 124 113 73 113 113 124 123 57 57 10 132 182 124 13 37 188 124 57 113 39 182 48 189 53 53 17
split_gain=386304 111095 110970 35420 34884.1 22573.2 21997.5 21302.3 19970.2 13754.9 12796.4 10413.8 9710.93 9812.72 8773.08 8799.79 8247.26 8199.6 8221.64 7641.11 8256.93 8652.22 8178.93 7749.05 7573.96 7448.46 7277.02 7228.65 7207.52 6897.9
threshold=2.6816600000000013 -0.17745000000000014 4.9350400000000052 1.0000000180025095e-35 1.0000000180025095e-35 6.8903500000000095 315.7050000000001 3.7342100000000027 1.6669299999999996 1.0000000180025095e-35 1.5000000000000002 12.876496700483878 12.876496700483878 0.14045886439880015 2.5000000000000004 1.0000000180025095e-35 2.5000000000000004 0.13966759888757577 14.950926653161545 1.5000000000000002 1.0000000180025095e-35 24.948187092153624 9.4356500000000008 24.215501030544001 1.5000000000000002 128.77832742452503 1.0000000180025095e-35 5.4010674639650667 5.4010674639650667 0.86827711030182908
decision_type=2 2 2 2 2 2 2 2 2 2 2 2 2 8 2 2 2 8 2 2 2 2 2 2 2 2 2 2 2 2
left_child=1 6 3 7 8 9 10 17 24 11 14 -4 -9 25 15 -1 29 -2 -19 20 21 22 -7 -21 28 -14 -13 -10 -3 -6
right_child=2 4 5 -5 16 19 -8 12 27 -11 -12 26 13 -15 -16 -17 -18 18 -20 23 -22 -23 -24 -25 -26 -27 -28 -29 -30 -31
leaf_value=-0.16505399538210941 -0.054311165923210239 -0.073872791640652732 0.10777865051507243 -0.063237981684693786 -0.052784300750598395 0.18932265783828409 -0.44625787602487166 0.057915919745019362 -0.027937892993228471 0.0074292423123748222 -0.40196167046935605 0.065275201214907319 -0.049818182668383573 0.030477809834596567 -0.39945909911750194 -0.38491976282372103 -0.44875376098891562 0.019832301204402745 -0.014310800333839547 0.050518888828753876 0.063766924828583135 0.10633478434380861 0.36815743731202744 -0.45598534517112238 -0.51162566195177561 -1.4515891156698528 -0.16972706292850082 -0.15184259186567031 -0.20665596994325752 -0.15570048499656788
leaf_weight=36834 23328 131552 97972 54540 7965 24983 3980 148150 216835 26217 2944 101559 15390 150156 1839 1915 865 190885 111853 2166 7688 12098 2849 351 404 38 1335 4813 4219 35713
leaf_count=36834 23328 131552 97972 54540 7965 24983 3980 148150 216835 26217 2944 101559 15390 150156 1839 1915 865 190885 111853 2166 7688 12098 2849 351 404 38 1335 4813 4219 35713
internal_value=0 -0.0766105 0.0354743 0.0141196 -0.0595342 0.0889608 -0.221224 0.020714 -0.0491456 0.0755528 -0.20065 0.0844443 0.0393161 0.0226747 -0.186048 -0.17592 -0.142988 0.00281542 0.00721741 0.149691 0.158667 0.176939 0.207629 -0.020114 -0.0792854 -0.0532708 0.0622262 -0.0306284 -0.0779989 -0.136933
internal_weight=0 449878 971558 694340 402366 277218 47512 639800 357823 227083 43532 200866 313734 165584 40588 38749 44543 326066 302738 50135 47618 39930 27832 2517 136175 15428 102894 221648 135771 43678
internal_count=1421436 449878 971558 694340 402366 277218 47512 639800 357823 227083 43532 200866 313734 165584 40588 38749 44543 326066 302738 50135 47618 39930 27832 2517 136175 15428 102894 221648 135771 43678
is_linear=0
shrinkage=0.1


Tree=11
num_leaves=31
num_cat=0
split_feature=113 113 113 124 113 124 113 57 97 124 113 124 189 98 53 113 95 49 10 17 1 64 97 198 58 184 17 124 97 53
split_gain=316425 117499 66268.3 33314.7 30829.4 24169.6 18907.1 16528.7 13568.7 11513.4 12026.8 11332.6 11243.8 10619.2 10618.4 10217.9 9715.19 9442.58 9406.09 8749.82 8475.91 8188.07 7619.75 7576.95 7280.98 6957.14 6612.66 11548.2 6394.57 6336.82
threshold=3.2621000000000038 0.63699999999999979 5.6390700000000065 1.0000000180025095e-35 -1.6225999999999992 1.0000000180025095e-35 1.9241100000000004 19.549058992321036 5.5000000000000009 1.5000000000000002 8.1198600000000098 1.5000000000000002 1.0000000180025095e-35 23.500000000000004 10.744871186056528 4.2180000000000044 0.3917306052855925 17.958694294026838 0.067389528725156564 1.5624988660164777e-06 -4.068853044690095 7.2775490144239274 2.5000000000000004 1.5000000000000002 1.0000000180025095e-35 1.0000000180025095e-35 0.86827711030182908 1.5000000000000002 3.5000000000000004 5.4010674639650667
decision_type=2 2 2 2 2 2 2 2 2 2 2 2 2 2 2 2 2 2 10 2 2 2 2 2 2 2 2 2 2 2
left_child=1 4 5 6 13 7 -3 14 12 10 25 20 16 24 15 -2 -9 -8 -10 -13 21 -6 -19 -22 -1 28 -5 -28 -4 -24
right_child=2 3 9 26 11 -7 17 8 18 -11 -12 19 -14 -15 -16 -17 -18 22 -20 -21 23 -23 29 -25 -26 -27 27 -29 -30 -31
leaf_value=-0.359638759522933 0.031103796681262987 -0.057216565650049026 0.10938075810519102 -0.037197522481145294 -0.092698265858204232 -0.036500846222513192 0.0048720251124219835 0.034525609185648343 -1.4209456376731397 -0.16542551636142944 0.1844498462990429 0.036674774183549981 -0.21722502488622122 -0.5757876732819317 -0.33481810837350839 0.064294038652127031 -0.010858721857619527 -0.018719770362527231 -0.19218756126907582 -0.37711898751433454 -0.098931095693540305 -0.31979790467556546 -0.056812441631522409 -0.24411253278124329 -0.2148405705760662 0.035147149152357969 -0.10969955378603558 -0.27579731655276246 0.019293045604231084 -0.22268195536466778
leaf_weight=4904 188113 147652 110690 9861 2666 52766 146028 118400 64 1601 16623 620 2081 1115 728 182981 78399 166015 2343 2907 55239 3925 39203 3845 11898 17324 37808 4707 8483 2447
leaf_count=4904 188113 147652 110690 9861 2666 52766 146028 118400 64 1601 16623 620 2081 1115 728 182981 78399 166015 2343 2907 55239 3925 39203 3845 11898 17324 37808 4707 8483 2447
internal_value=0 -0.0520727 0.0427497 -0.0350882 -0.160025 0.028263 -0.0271601 0.0342258 0.0111445 0.101351 0.104141 -0.129756 0.0140008 -0.276935 0.0467209 0.0474694 0.0164458 -0.0146128 -0.224859 -0.30438 -0.120378 -0.227938 -0.0283143 -0.108379 -0.257103 0.0943604 -0.110976 -0.128089 0.102968 -0.0665575
internal_weight=0 640840 780596 553721 87119 625875 501345 573109 201287 154721 153120 69202 198880 17917 371822 371094 196799 353693 2407 3527 65675 6591 207665 59084 16802 136497 52376 42515 119173 41650
internal_count=1421436 640840 780596 553721 87119 625875 501345 573109 201287 154721 153120 69202 198880 17917 371822 371094 196799 353693 2407 3527 65675 6591 207665 59084 16802 136497 52376 42515 119173 41650
is_linear=0
shrinkage=0.1


Tree=12
num_leaves=31
num_cat=0
split_feature=113 113 97 124 42 132 102 113 97 53 155 79 13 149 17 124 95 189 47 124 124 124 17 124 156 17 135 198 13 189
split_gain=257389 85655.7 71286.9 23692.9 22432.4 19662.1 18996.3 17895.4 15828.8 14336.5 12985.6 12895.5 12088.9 11971.3 9920.49 9331.25 9282.66 8828.1 8765.04 8606.18 8534.61 8279.11 8094.08 7992.78 7862.69 7743.73 7467.97 7149.65 7117.57 6470.19
threshold=2.4310500000000013 4.7644500000000027 4.5000000000000009 1.0000000180025095e-35 12.80123123712322 2.5000000000000004 1.0000000180025095e-35 6.0784500000000081 1.5000000000000002 10.744871186056528 1.0000000180025095e-35 30.408805215516917 0.03458301526866886 1.5000000000000002 0.86827711030182908 1.0000000180025095e-35 0.76533166458072599 1.5000000000000002 128.93966785656829 1.0000000180025095e-35 1.0000000180025095e-35 3.5000000000000004 1.3851045626032301 1.5000000000000002 1.0000000180025095e-35 3.6592882687569598e-07 1.0000000180025095e-35 9.5000000000000018 0.41420154317905683 1.0000000180025095e-35
decision_type=2 2 2 2 2 2 2 2 2 2 2 2 8 2 2 2 2 2 2 2 2 2 2 2 2 2 2 2 10 2
left_child=2 3 6 8 5 24 20 19 13 11 14 -10 -13 26 -6 -8 -7 18 23 22 29 -16 -3 25 27 -9 -2 -4 -17 -1
right_child=1 7 4 -5 10 16 15 17 9 -11 -12 12 -14 -15 21 28 -18 -19 -20 -21 -22 -23 -24 -25 -26 -27 -28 -29 -30 -31
leaf_value=-0.074136791184889653 0.016042278110324104 0.024217255797459831 -0.15979153459557383 -0.054955207482842355 -0.16564071588151127 -0.27537171421550194 -0.028633069315261103 -0.39664161120990482 0.0092016088857207919 -0.3541350628390279 -0.07345807092079025 -0.77067215608225892 -0.036653519189865577 0.041852324999366142 -0.43390985667221182 -0.12597773861236314 -0.64514341801776554 -0.40591862276141699 0.2960808708397844 -0.0062432230945195814 -0.16620845128554831 -1.0340538690898045 0.071514294699428577 -0.15173419244136721 -0.080341880981020242 0.10473149364013097 -0.035006697525134321 -0.70945482307024088 0.016702264911764225 -0.30963211311051048
leaf_weight=90021 170315 48850 23984 57393 1449 4423 194525 309 184556 1184 1569 225 80597 199957 4584 17519 802 340 2334 22456 12212 242 139533 1245 19868 100701 34454 239 4368 1182
leaf_count=90021 170315 48850 23984 57393 1449 4423 194525 309 184556 1184 1569 225 80597 199957 4584 17519 802 340 2334 22456 12212 242 139533 1245 19868 100701 34454 239 4368 1182
internal_value=0 0.0255653 -0.0708291 0.00671363 -0.173691 -0.148706 -0.0524455 0.0690683 0.0119861 -0.00693515 -0.330769 -0.0053861 -0.038697 0.0244481 -0.395107 -0.0355983 -0.332129 0.102814 0.104467 0.0522741 -0.0877009 -0.464004 0.0592496 0.100094 -0.12697 0.103198 0.00745289 -0.165215 -0.097503 -0.0771888
internal_weight=0 1.04445e+06 376987 728681 57160 49316 319827 315768 671288 266562 7844 265378 80822 404726 6275 216412 5225 104929 104589 210839 103415 4826 188383 102255 44091 101010 204769 24223 21887 91203
internal_count=1421436 1044449 376987 728681 57160 49316 319827 315768 671288 266562 7844 265378 80822 404726 6275 216412 5225 104929 104589 210839 103415 4826 188383 102255 44091 101010 204769 24223 21887 91203
is_linear=0
shrinkage=0.1


Tree=13
num_leaves=31
num_cat=0
split_feature=113 113 113 113 123 97 95 124 53 10 10 131 53 188 189 47 115 97 47 13 189 54 198 189 182 182 79 124 17 86
split_gain=215209 87633.5 39300.5 29648.2 19356.7 16887.5 13305.3 12435 11152.6 10048.1 9997.28 10844.3 9339.76 8991.95 8893.38 8654.28 8328.3 8312.41 8279.98 8051.65 7536.41 7377.81 7327.21 7260.45 7172.35 6835.38 6549.94 8970.67 10879.6 6389.21
threshold=3.4251500000000026 1.1458500000000003 5.7674000000000047 -1.6225999999999992 1.0000000180025095e-35 1.5000000000000002 0.38956639566395673 1.0000000180025095e-35 10.744871186056528 0.8366065593125267 0.12953255783052939 3.5000000000000004 10.744871186056528 1.0000000180025095e-35 1.0000000180025095e-35 38.115136752438836 2.5000000000000004 17.500000000000004 76.513543984414227 0.03458301526866886 1.0000000180025095e-35 4.3393779863563422 1.0000000180025095e-35 1.0000000180025095e-35 2.5000000000000004 1.0000000180025095e-35 37.677630967458718 1.5000000000000002 2.0833313450019741e-06 -8.4902190983984855
decision_type=2 2 2 2 2 2 2 2 2 10 8 2 2 2 2 2 2 2 2 8 2 2 2 2 2 2 2 2 2 2
left_child=1 3 5 16 6 14 12 22 19 -9 11 -8 13 -3 15 -2 17 24 20 -7 29 -15 25 -12 -1 -5 27 -21 -29 -4
right_child=2 4 18 7 -6 8 10 9 -10 -11 23 -13 -14 21 -16 -17 -18 -19 -20 26 -22 -23 -24 -25 -26 -27 -28 28 -30 -31
leaf_value=-0.20084334508525661 0.030523454831658692 0.0060383581212019588 -0.39108872361583252 -0.06437247789087891 -0.081889443536415099 -0.3708680083390814 -0.10711172075676163 -0.18209239364073607 -0.33035747160647105 0.11658325540805142 -0.029152822689857569 -0.92235194871823001 -0.30855634644145691 -0.23821803316089279 -0.17686603701124029 0.063667746717890453 -0.6603465699288692 -0.60987130666482392 0.13534403894356908 0.021012810286618822 -0.25124875709630212 -0.028845126509795562 -0.15387345256381132 -0.27138034676490908 -0.69745067269415473 -0.27912042329149533 -0.020575521567866257 0.073851637971287562 -0.32341283862529591 0.077303018777964777
leaf_weight=16642 229279 244202 292 80486 50080 561 14686 19348 981 1196 179668 165 1005 1723 1868 120017 444 535 27422 172184 708 72511 11405 1246 296 1510 58375 1180 1658 109763
leaf_count=16642 229279 244202 292 80486 50080 561 14686 19348 981 1196 179668 165 1005 1723 1868 120017 444 535 27422 172184 708 72511 11405 1246 296 1510 58375 1180 1658 109763
internal_value=0 -0.0396606 0.0381745 -0.113069 -0.0225369 0.0268638 -0.0167676 -0.0942663 0.00611121 -0.164705 -0.0372957 -0.116169 -0.00418719 -0.00322658 0.040748 0.0419117 -0.232648 -0.22178 0.0861478 0.00752205 0.0739681 -0.0337048 -0.0787731 -0.0308211 -0.209522 -0.0683272 0.00843156 0.0181063 -0.158236 0.0760603
internal_weight=0 697148 724288 131862 565286 586103 515206 113945 234939 20544 195765 14851 319441 318436 351164 349296 17917 17473 138185 233958 110763 74234 93401 180914 16938 81996 233397 175022 2838 110055
internal_count=1421436 697148 724288 131862 565286 586103 515206 113945 234939 20544 195765 14851 319441 318436 351164 349296 17917 17473 138185 233958 110763 74234 93401 180914 16938 81996 233397 175022 2838 110055
is_linear=0
shrinkage=0.1


Tree=14
num_leaves=31
num_cat=0
split_feature=113 97 113 113 1 132 123 124 17 189 49 124 113 17 17 124 124 13 135 132 95 53 31 130 18 189 189 97 17 124
split_gain=175997 64991.5 39908.3 23767.4 18666.8 15901 14762.9 14615.8 12880.6 12737.9 11218.4 10619.3 11072 9678.56 9072.54 8674.61 8627.58 8282.74 8189.32 7715.36 7471.73 7011.67 6523.02 6510.07 6423.2 6210.81 6149.85 6044.06 5888.79 14665.1
threshold=3.0978000000000012 4.5000000000000009 5.1866100000000044 1.5971499999999994 -4.7204490204183225 2.5000000000000004 1.0000000180025095e-35 1.5000000000000002 1.0426711894739429 1.0000000180025095e-35 22.840477868831268 1.0000000180025095e-35 7.7962600000000082 1.5624988660164777e-06 1.1285183405303336 1.0000000180025095e-35 3.5000000000000004 0.075335782467885762 1.0000000180025095e-35 1.0000000180025095e-35 0.76533166458072599 10.744871186056528 -1.6399999999999992 1.0000000180025095e-35 736.19317587581884 1.0000000180025095e-35 1.0000000180025095e-35 1.0000000180025095e-35 0.86827711030182908 1.5000000000000002
decision_type=2 2 2 2 2 2 2 2 2 2 2 2 2 2 2 2 2 8 2 2 2 2 2 2 2 2 2 2 2 2
left_child=1 3 6 15 -3 7 8 17 -2 10 -10 12 14 -9 -4 22 -15 -6 26 -12 -7 24 -1 -14 -19 -16 27 -5 -8 -30
right_child=2 4 11 18 5 20 28 13 9 -11 19 -13 23 16 25 -17 -18 21 -20 -21 -22 -23 -24 -25 -26 -27 -28 -29 29 -31
leaf_value=-0.038831767740940798 -0.0571611110312795 -0.31411900402321075 -0.0030585856614580285 0.017426521785555097 -0.73008469087095129 -0.23267081903451561 0.050664079149940582 0.07146450291327261 0.039006563421400332 -0.27072642707198474 0.015731992918713442 0.0088204400668784304 0.23566902448319046 -0.28000402226441373 0.074926865874444123 -0.12697234566791116 -0.90141124116613514 -0.14293559474937909 -0.057053665619955146 -0.040674377945834408 -0.55830388133210751 -0.31507067828457441 -0.086530136479205974 0.10774019015904138 -0.056945078577758039 -0.15027991711770336 -0.23113117936352487 -0.017064554582745691 -0.036803956646422609 -0.30636746620395605
leaf_weight=85688 20475 5387 17265 63002 199 4697 6683 770 266971 1466 245174 29092 5700 4537 160333 19122 235 11408 44317 26911 829 1275 43088 13166 36414 1234 1267 262454 40152 2125
leaf_count=85688 20475 5387 17265 63002 199 4697 6683 770 266971 1466 245174 29092 5700 4537 160333 19122 235 11408 44317 26911 829 1275 43088 13166 36414 1234 1267 262454 40152 2125
internal_value=0 -0.0420943 0.029414 -0.0302268 -0.135758 -0.119841 0.0160973 -0.103548 0.0206932 0.0236424 0.0244429 0.0652296 0.0735304 -0.257521 0.0658439 -0.0641239 -0.310606 -0.0862384 -0.0167153 0.010153 -0.281522 -0.0836288 -0.0547915 0.146391 -0.0774582 0.0732068 -0.0112438 -0.0103877 -0.0365644 -0.0503532
internal_weight=0 584689 836747 518938 65751 60364 609957 54838 560997 540522 539056 226790 197698 5542 178832 147898 4772 49296 371040 272085 5526 49097 128776 18866 47822 161567 326723 325456 48960 42277
internal_count=1421436 584689 836747 518938 65751 60364 609957 54838 560997 540522 539056 226790 197698 5542 178832 147898 4772 49296 371040 272085 5526 49097 128776 18866 47822 161567 326723 325456 48960 42277
is_linear=0
shrinkage=0.1


Tree=15
num_leaves=31
num_cat=0
split_feature=113 113 113 113 123 97 57 198 135 48 198 113 189 10 13 188 54 113 53 124 124 188 54 124 31 12 124 135 17 124
split_gain=145809 62954.4 23574.8 23296.7 14918.2 12435.7 12112.4 10348.6 9610.28 9316.71 8635.47 8605.41 8303.38 8160.17 7913.58 7588.27 12245.9 7728.6 7550.49 7450.64 7358 6879.5 15315.4 7509.4 6478.99 6084.78 5928.61 5708.11 5365.14 7867.97
threshold=3.6191850000000025 1.2864850000000003 -0.86759999999999415 5.8579100000000066 1.0000000180025095e-35 2.5000000000000004 12.876496700483878 1.0000000180025095e-35 1.0000000180025095e-35 62.440769976124251 7.5000000000000009 -3.3114999999999957 1.0000000180025095e-35 0.57259630355254354 0.03458301526866886 1.5000000000000002 4.5566621826930218 8.5854500000000069 10.744871186056528 1.0000000180025095e-35 1.0000000180025095e-35 1.0000000180025095e-35 1.0000000180025095e-35 1.0000000180025095e-35 -1.889999999999999 0.93665862373068565 1.5000000000000002 1.0000000180025095e-35 1.1249996425626177e-06 1.5000000000000002
decision_type=2 2 2 2 2 2 2 2 2 2 2 2 2 8 8 2 2 2 2 2 2 2 2 2 2 10 2 2 2 2
left_child=1 2 11 5 6 8 -3 12 21 -9 -11 -1 24 19 -7 17 -17 26 -16 -13 -4 23 -23 -2 -8 -22 27 -5 -6 -30
right_child=3 4 20 15 28 14 7 9 -10 10 -12 13 -14 -15 18 16 -18 -19 -20 -21 25 22 -24 -25 -26 -27 -28 -29 29 -31
leaf_value=-0.2730767931503934 0.050181562393834256 0.0062327532240523875 -0.057224968260776193 0.081247792781254713 0.0069584384172621588 -0.55648315275803129 -0.0074513813194523318 -0.054276395200558707 -0.0056854771932075667 -0.15960871416280445 -0.60831593095844072 -0.12146637845203752 -0.24385400131292939 0.0638800290537858 -0.0042804186570054841 -0.50922634052112703 0.005188774962565236 0.16009501637364651 -0.30463287734798539 -0.25298852262332788 -0.13736652101213545 -0.29284450938649892 0.019551102153937808 -0.0095983757195440209 -0.043430704149471783 0.11896551360810798 -0.15371907766603998 0.013841401898385369 -0.066727103551448147 -0.2119362848810285
leaf_weight=6151 267737 239415 99729 96509 8413 263 218618 32793 58181 4101 479 15846 1604 1808 88137 518 4340 10433 845 5915 18449 1597 90633 22803 64910 975 1171 14443 40510 4110
leaf_count=6151 267737 239415 99729 96509 8413 263 218618 32793 58181 4101 479 15846 1604 1808 88137 518 4340 10433 845 5915 18449 1597 90633 22803 64910 975 1171 14443 40510 4110
internal_value=0 -0.0297177 -0.088066 0.0345176 -0.0155922 0.0252908 -0.0108073 -0.0234572 0.0321807 -0.0729357 -0.206537 -0.167745 -0.0169719 -0.140256 -0.00875156 0.0729124 -0.0496624 0.0777711 -0.00713266 -0.157216 -0.0681919 0.0379363 0.0141418 0.0454897 -0.0156884 -0.1245 0.0701109 0.0724733 -0.0662914 -0.0801025
internal_weight=0 763826 148873 657610 614953 530196 561920 322505 440951 37373 4580 29720 285132 23569 89245 127414 4858 122556 88982 21761 119153 382770 92230 290540 283528 19424 112123 110952 53033 44620
internal_count=1421436 763826 148873 657610 614953 530196 561920 322505 440951 37373 4580 29720 285132 23569 89245 127414 4858 122556 88982 21761 119153 382770 92230 290540 283528 19424 112123 110952 53033 44620
is_linear=0
shrinkage=0.1


Tree=16
num_leaves=31
num_cat=0
split_feature=113 113 97 1 47 61 97 189 97 47 135 3 64 112 132 124 188 54 47 47 47 198 49 123 113 95 155 3 143 86
split_gain=120576 49082.4 29869.2 16876 16044.2 12104.2 11372.5 10883.3 10184.5 9201.96 9096.55 8279.63 8023.42 7907.34 7617.45 7543.73 7463.18 17560.7 6557.06 6383.55 6109.68 5933.55 5740.26 6784.52 5505.61 5416.17 5100.93 4891.9 4762.99 4831.81
threshold=2.1485400000000001 4.0935300000000048 3.5000000000000004 -4.3244596896415803 63.504913201927209 27.809224750587148 1.5000000000000002 1.0000000180025095e-35 3.5000000000000004 13.932029174547573 1.0000000180025095e-35 1.0000000180025095e-35 14.691599949193231 1.5000000000000002 1.0000000180025095e-35 1.0000000180025095e-35 1.0000000180025095e-35 1.0000000180025095e-35 32.386590824267437 25.982402615515607 149.02543809862206 11.500000000000002 23.407086934109156 1.0000000180025095e-35 5.8120900000000066 0.76043478260869579 1.0000000180025095e-35 1.0000000180025095e-35 1.5000000000000002 -8.4902190983984855
decision_type=2 2 2 2 2 2 2 2 2 2 2 2 2 2 2 2 2 2 2 2 2 2 2 2 2 2 2 2 2 2
left_child=2 6 9 12 7 13 19 8 10 27 15 -8 -4 -5 20 16 24 -18 25 -2 26 28 23 -13 -3 -7 -6 -1 29 -10
right_child=1 4 3 5 14 18 11 -9 21 -11 -12 22 -14 -15 -16 -17 17 -19 -20 -21 -22 -23 -24 -25 -26 -27 -28 -29 -30 -31
leaf_value=-0.13810675930858182 -0.0025683611829016967 0.048164456620353006 -0.16910156983492117 -0.14624096048046262 0.073338923011053089 -0.23479883453083361 -0.11766811096082408 -0.23187594713588167 -0.51234966389797065 -0.011479885217076326 -0.0036585149674578776 0.0062708091039729566 -0.3726987309251189 -0.057206297006461827 -0.022850432275032855 -0.0036996153251466404 -0.32321542562343264 0.026879747522805059 -0.12158546616690542 0.02522811982618452 0.31692343963389558 -0.65430546472045159 -0.032352415084840179 -0.056914411103763357 0.088106745496467631 -0.54846420352794523 0.14559818284507195 -0.048866984085694988 -0.2660517000490788 -0.014984322343956046
leaf_weight=6453 212761 182441 5499 12437 61477 4137 8272 1574 197 87522 51731 122340 2987 50389 6708 33563 1458 82723 6385 135070 1152 152 117923 19735 42560 635 11615 127750 809 22981
leaf_count=6453 212761 182441 5499 12437 61477 4137 8272 1574 197 87522 51731 122340 2987 50389 6708 33563 1458 82723 6385 135070 1152 152 117923 19735 42560 635 11615 127750 809 22981
internal_value=0 0.0151974 -0.0558169 -0.107197 0.0384374 -0.0918769 -0.00370615 0.0305837 0.0315706 -0.0367063 0.035429 -0.0191765 -0.240766 -0.0748315 0.0792024 0.0413285 0.0462165 0.0208162 -0.187861 0.00822559 0.088423 -0.0314834 -0.0160429 -0.00250597 0.0557197 -0.276538 0.0848216 -0.053158 -0.0275367 -0.0192116
internal_weight=0 1.11724e+06 304194 82469 501141 73983 616101 420189 418615 221725 394476 268270 8486 62826 80952 342745 309182 84181 11157 347831 74244 24139 259998 142075 225001 4772 73092 134203 23987 23178
internal_count=1421436 1117242 304194 82469 501141 73983 616101 420189 418615 221725 394476 268270 8486 62826 80952 342745 309182 84181 11157 347831 74244 24139 259998 142075 225001 4772 73092 134203 23987 23178
is_linear=0
shrinkage=0.1


Tree=17
num_leaves=31
num_cat=0
split_feature=113 97 113 47 1 97 124 132 123 47 13 0 34 86 95 48 189 124 17 188 54 156 61 53 135 57 189 57 47 93
split_gain=97983.8 33388.3 28058 14488.9 11995.6 10884.2 10326.1 10822.3 9968.07 9383.51 8858.81 8325.65 8500.63 7480.89 7311.79 6992.04 6949.04 6885.26 8000.61 6792.04 9358.17 6633.68 6331.19 6177.47 6127.03 6055.39 6017.24 5448.66 5385.53 5333.57
threshold=2.7887900000000014 4.5000000000000009 4.4153100000000043 11.227381579585741 -4.7204490204183225 1.5000000000000002 2.5000000000000004 2.5000000000000004 1.0000000180025095e-35 68.232804979724136 0.13966759888757577 8.7887681801910134 19.922970850722756 -8.4902190983984855 0.63211600429645554 128.77832742452503 1.0000000180025095e-35 1.5000000000000002 1.8049989560297964e-06 1.0000000180025095e-35 1.0000000180025095e-35 1.5000000000000002 5.167635796894575 5.3273714384385489 1.0000000180025095e-35 32.151172971331683 1.0000000180025095e-35 19.549058992321036 30.355967938238731 4.1089417970512931
decision_type=2 2 2 2 2 2 2 2 2 2 8 2 2 2 2 2 2 2 2 2 2 2 2 2 2 2 2 2 2 2
left_child=1 3 8 14 -3 9 7 21 10 16 15 12 -7 -13 -1 22 24 -15 -19 23 -21 25 -2 27 -4 -6 28 29 -5 -12
right_child=2 4 5 26 6 11 -8 -9 -10 -11 19 13 -14 17 -16 -17 -18 18 -20 20 -22 -23 -24 -25 -26 -27 -28 -29 -30 -31
leaf_value=-0.042283870737630444 -0.0016338277490059749 -0.25070890561878645 0.05286658965458825 -0.018830272317340288 -0.078103845474715189 -0.042792150721563317 -0.37905678035330259 -0.22000651385839173 -0.043988293960726198 0.10262439551402996 0.043317907347929147 -0.37947993537595315 -0.48612304672860773 0.029744043559687412 -0.10381545267275397 -1.2983333062041891 -0.19478915452861378 0.095140969390010474 -0.2357698244412697 -0.2530990989147065 -0.0075562749726844486 -0.0050492899292322192 -0.083676632888131569 -0.08419772696199912 0.0038952317481685548 -0.21255106199315607 -0.16751074737264582 0.0035597095389044361 0.015604408349535687 0.01179584847643249
leaf_weight=124016 21811 5191 178288 214353 34605 12508 1225 5401 40437 31975 122024 455 448 148098 22874 44 1207 1131 2064 1577 98542 11686 16538 5808 29822 3709 2496 129640 57630 95833
leaf_count=124016 21811 5191 178288 214353 34605 12508 1225 5401 40437 31975 122024 455 448 148098 22874 44 1207 1131 2064 1577 98542 11686 16538 5808 29822 3709 2496 129640 57630 95833
internal_value=0 -0.0365861 0.0188413 -0.0265176 -0.105217 0.0386414 -0.091879 -0.0855291 0.00373808 0.0521689 0.00766212 0.0188236 -0.0581219 0.0253931 -0.0518657 -0.0384603 0.0444614 0.0266107 -0.118631 0.0115675 -0.0114239 -0.0710028 -0.0370148 0.0180827 0.045849 -0.0911191 -0.0129524 0.0197922 -0.011534 0.0294517
internal_weight=0 483186 938250 421369 61817 405996 56626 55401 532254 241292 491817 164704 12956 151748 146890 38393 209317 151293 3195 453424 100119 50000 38349 353305 208110 38314 274479 347497 271983 217857
internal_count=1421436 483186 938250 421369 61817 405996 56626 55401 532254 241292 491817 164704 12956 151748 146890 38393 209317 151293 3195 453424 100119 50000 38349 353305 208110 38314 274479 347497 271983 217857
is_linear=0
shrinkage=0.1


Tree=18
num_leaves=31
num_cat=0
split_feature=113 113 113 47 155 37 123 198 198 11 107 155 95 132 47 115 132 0 97 37 13 143 184 124 17 31 15 123 189 123
split_gain=81360.3 34014.4 22157.1 11987.4 10558.1 10515 8876.28 7828.23 7713.56 7058.74 7036.61 6910.21 6632.61 6493.01 6389.94 6264.74 6233.13 5988.14 5940.14 5623.22 5472.28 5219.98 4914.93 5722.27 4956.28 4516.87 4332.53 4323.02 4304.81 4227.52
threshold=2.0533100000000006 4.0935300000000048 -0.86759999999999415 50.600171587210674 1.0000000180025095e-35 10.214876562269112 1.0000000180025095e-35 1.0000000180025095e-35 1.0000000180025095e-35 -0.33128365513877062 28.500000000000004 1.0000000180025095e-35 0.47871376811594207 1.0000000180025095e-35 92.78764896055317 1.5000000000000002 1.5000000000000002 4.0092853993449244 16.500000000000004 26.459353691923308 0.50795913355446409 1.5000000000000002 1.0000000180025095e-35 1.0000000180025095e-35 0.86827711030182908 -1.9599999999999995 1.1968455042225536 1.0000000180025095e-35 1.0000000180025095e-35 1.0000000180025095e-35
decision_type=2 2 2 2 2 2 2 2 2 10 2 2 2 2 2 2 2 2 2 2 10 2 2 2 2 2 2 2 2 2
left_child=2 4 10 7 5 28 11 22 21 -10 15 12 -4 14 17 18 -14 -5 -1 -11 -8 25 23 24 -3 29 -9 -19 -2 -7
right_child=1 3 6 13 -6 8 20 26 9 19 -12 -13 16 -15 -16 -17 -18 27 -20 -21 -22 -23 -24 -25 -26 -27 -28 -29 -30 -31
leaf_value=-0.10265389647290275 0.0083886124773360181 -0.047470189912551947 -0.025088251657367069 -0.099218917560909892 0.032700934647771691 -0.0037001386468101132 -0.094087066653089552 -0.14956044298112625 -0.05575420061957953 -0.26988271708948025 -0.57164623941336712 0.0122466871405616 -0.058864181564494633 -0.016001151225830845 0.12331898869588763 -0.28115824919094695 -0.22884315588084739 0.064372409712290399 -0.38182208886114988 -1.2357295260062586 0.13154807460254389 -0.23456290374677466 -0.0054820510112316674 -0.013486626477864189 0.038529060680464217 -0.044819010864575744 -0.012756389619080752 0.010352178896195927 -0.28922334659531013 -0.045195698152494405
leaf_weight=26234 241414 6896 125046 2512 71867 218860 32189 2477 36329 830 356 31442 60571 11897 14701 2345 2237 105053 785 65 1112 1071 41762 25719 237490 39401 35388 17246 487 27654
leaf_count=26234 241414 6896 125046 2512 71867 218860 32189 2477 36329 830 356 31442 60571 11897 14701 2345 2237 105053 785 65 1112 1071 41762 25719 237490 39401 35388 17246 487 27654
internal_value=0 0.0119104 -0.0480572 0.0314075 -0.00340483 -0.00798841 -0.0384478 0.0212312 -0.0197607 -0.0625892 -0.12973 -0.0311429 -0.0384052 0.0549132 0.0609605 -0.124372 -0.0649182 0.0536156 -0.110765 -0.340028 -0.0865526 -0.0142055 0.0264443 0.0313806 0.0361024 -0.0133801 -0.0217056 0.0567547 0.00778945 -0.00835512
internal_weight=0 1.13912e+06 282317 501141 637978 566111 252597 349732 324210 37224 29720 219296 187854 151409 139512 29364 62808 124811 27019 895 33301 286986 311867 270105 244386 285915 37865 122299 241901 246514
internal_count=1421436 1139119 282317 501141 637978 566111 252597 349732 324210 37224 29720 219296 187854 151409 139512 29364 62808 124811 27019 895 33301 286986 311867 270105 244386 285915 37865 122299 241901 246514
is_linear=0
shrinkage=0.1


Tree=19
num_leaves=31
num_cat=0
split_feature=113 97 47 1 47 13 61 64 113 198 95 13 198 124 17 97 93 189 97 181 47 13 97 123 17 135 47 124 188 54
split_gain=66732.9 33032.5 14424.5 14159.9 13935.4 11485.1 10444.8 9083.4 7491.2 7156.32 6915.56 6291.14 6028.35 5829.78 7726.38 5820 5679.54 5261.85 5203.51 5077.87 6117.58 4771.93 4771.18 4697.99 6303.6 4688.85 4343.5 4213.51 4205.7 5747.91
threshold=3.5693100000000029 3.5000000000000004 13.932029174547573 -4.1197060053856172 39.028230019797938 0.03458301526866886 27.266730804281334 14.691599949193231 7.0234700000000068 1.0000000180025095e-35 0.53410852713178303 0.10924041635306567 1.5000000000000002 2.5000000000000004 2.6449965221172331e-06 4.5000000000000009 21.053181010318617 1.0000000180025095e-35 1.0000000180025095e-35 1.5000000000000002 17.407979465582486 0.12881813050546495 7.5000000000000009 1.0000000180025095e-35 0.86827711030182908 1.5000000000000002 5.2248893189068371 1.0000000180025095e-35 1.0000000180025095e-35 4.3393779863563422
decision_type=2 2 2 2 2 8 2 2 2 2 2 8 2 2 2 2 2 2 2 2 2 8 2 2 2 2 2 2 2 2
left_child=1 2 10 7 9 -5 13 16 11 25 27 -6 26 19 -15 -13 -3 18 -4 20 -7 -20 -11 -23 -25 -2 -8 28 -1 -30
right_child=4 3 17 5 8 6 12 -9 -10 22 -12 15 -14 14 -16 -17 -18 -19 21 -21 -22 23 -24 24 -26 -27 -28 -29 29 -31
leaf_value=-0.0066005307601757421 0.016031649049764833 -0.24214067016944518 0.027477826434002456 -0.60338982336437952 -0.034823518669632535 -0.076188949454772031 -0.25171933252321227 -0.29062359837787927 0.081425695890326222 -0.029237549232502765 -0.057438649296864978 0.040017258280508276 -0.24378382380708158 0.16743678773824511 -0.42370130161778263 -0.040100724477308725 -0.072349453564760302 -0.13858726060065713 -0.063261027361387501 0.042421766120020313 -0.022393889813207113 0.0048303070945338328 -0.53837046267011679 0.068177373826265916 -0.062395506896405065 -0.089187930726698395 -0.068337557715586111 -0.066083395759227115 -0.23116297161773436 -0.033496463552168773
leaf_weight=146415 343881 2584 72489 381 12898 36915 1510 3897 36932 36292 61984 230651 3675 301 833 9438 8292 2618 12423 7130 49467 227154 185 4462 21573 4288 8930 17934 1512 54392
leaf_count=146415 343881 2584 72489 381 12898 36915 1510 3897 36932 36292 61984 230651 3675 301 833 9438 8292 2618 12423 7130 49467 227154 185 4462 21573 4288 8930 17934 1512 54392
internal_value=0 -0.0205919 -0.0112123 -0.0677454 0.0227991 -0.0553087 -0.0533887 -0.159627 0.0393545 0.0103208 -0.0279315 0.0332128 -0.133635 -0.0414212 -0.266794 0.0368678 -0.11269 0.00263707 0.0037306 -0.0386882 -0.045383 -0.00275032 -0.0318197 0.000218701 -0.0400173 0.0147358 -0.0948612 -0.0196275 -0.0155095 -0.0388426
internal_weight=0 746871 622956 123915 674565 109142 108761 14773 289919 384646 282237 252987 14115 94646 1134 240089 10876 340719 338101 93512 86382 265612 36477 253189 26035 348169 10440 220253 202319 55904
internal_count=1421436 746871 622956 123915 674565 109142 108761 14773 289919 384646 282237 252987 14115 94646 1134 240089 10876 340719 338101 93512 86382 265612 36477 253189 26035 348169 10440 220253 202319 55904
is_linear=0
shrinkage=0.1


Tree=20
num_leaves=31
num_cat=0
split_feature=113 47 113 132 3 189 47 55 123 135 97 0 17 124 17 124 53 124 184 31 181 14 1 34 62 1 106 62 113 198
split_gain=55693.5 26794.3 14892.3 11629.6 10908 11071.5 10547.4 9088.98 8595.14 8321.24 7861.95 7391.97 7313.42 7125.77 7918.22 7626.14 6676.56 6459.01 6272.88 6182.45 5775.02 7683.61 5703.15 5661.38 5598.19 6350.89 5367.3 5365.28 5358.39 5139.24
threshold=1.8969500000000001 32.386590824267437 -2.2122799999999905 1.0000000180025095e-35 1.0000000180025095e-35 1.0000000180025095e-35 75.506996022254029 5.4595822028148939 1.0000000180025095e-35 1.0000000180025095e-35 1.5000000000000002 4.0092853993449244 0.86827711030182908 1.0000000180025095e-35 1.1249996425626177e-06 1.5000000000000002 5.4010674639650667 1.5000000000000002 1.0000000180025095e-35 -1.8399999999999996 1.5000000000000002 0.44092721834496512 -4.068853044690095 19.922970850722756 11.44001080094286 -4.3714108374642109 2.5000000000000004 5.7526245262592957 5.3749100000000061 1.0000000180025095e-35
decision_type=2 2 2 2 2 2 2 2 2 2 2 2 2 2 2 2 2 2 2 2 2 2 2 2 2 2 2 2 2 2
left_child=2 4 -1 6 23 9 11 -5 16 10 27 -3 -10 18 -15 -16 19 -14 28 -4 21 -12 26 -2 25 -23 -21 -6 -13 -9
right_child=1 3 8 7 5 -7 -8 29 12 -11 20 13 17 14 15 -17 -18 -19 -20 22 -22 24 -24 -25 -26 -27 -28 -29 -30 -31
leaf_value=-0.15087352035513865 -0.074296548976192964 -0.094168059937579179 -0.012708084621041017 0.049804791454748858 0.0039148402866052666 -0.26196713156924845 0.079128724407450113 -0.023464245915102665 0.015547425176930269 -0.02996353691731465 -0.61396681568738376 0.030714329369751239 -0.081051444243834994 0.12698697594723843 -0.012114366252573085 -0.2058106472076805 -0.12812089345181149 -0.20061130067576893 -0.0053449063748239444 -0.01519725507137634 0.051332947346880209 -0.25569059731589389 -0.041771370899586491 -0.70815113631772331 0.006713572500351578 -0.023156121725710271 -0.22754132767551877 0.030078803993864606 0.061240392530642229 -0.11130875274530741
leaf_weight=12164 18362 4941 124417 13949 214743 1626 43839 26576 6182 84997 213 222097 23224 3883 37240 2150 6636 5610 36398 1862 14524 1184 65495 142 89102 146677 3300 123423 77593 8887
leaf_count=12164 18362 4941 124417 13949 214743 1626 43839 26576 6182 84997 213 222097 23224 3883 37240 2150 6636 5610 36398 1862 14524 1184 65495 142 89102 146677 3300 123423 77593 8887
internal_value=0 0.00911963 -0.0429635 0.0273559 -0.0034111 -0.00133912 0.0326573 -0.0185797 -0.0374186 -0.000711167 0.00350397 0.0273561 -0.0831521 0.0289389 -0.00925615 -0.0226868 -0.0294795 -0.104313 0.0338567 -0.0261239 -0.00987775 -0.0136261 -0.0497474 -0.0791608 -0.0130865 -0.0250181 -0.150946 0.0134641 0.0386179 -0.045478
internal_weight=0 1.17255e+06 248890 477553 694993 676489 428141 49412 236726 674863 589866 384302 35016 379361 43273 39390 201710 28834 336088 195074 251700 237176 70657 18504 236963 147861 5162 338166 299690 35463
internal_count=1421436 1172546 248890 477553 694993 676489 428141 49412 236726 674863 589866 384302 35016 379361 43273 39390 201710 28834 336088 195074 251700 237176 70657 18504 236963 147861 5162 338166 299690 35463
is_linear=0
shrinkage=0.1


Tree=21
num_leaves=31
num_cat=0
split_feature=113 97 47 189 58 155 97 1 10 53 58 61 62 79 198 65 10 47 123 64 14 75 86 155 39 17 124 189 93 189
split_gain=46419.1 24366.3 11652.5 11393.1 11148.4 11080.6 9570.68 9039.67 8348.34 8235.63 6927.97 6320.24 6174.88 6138.98 5471.9 5453.49 6485.06 5342.03 5282.94 5225.4 5016.32 4544.92 4486.06 4451.44 4437.4 4355.62 6039.57 4199.11 3980.24 3918.61
threshold=3.7505100000000033 3.5000000000000004 13.932029174547573 1.5000000000000002 1.0000000180025095e-35 1.0000000180025095e-35 3.5000000000000004 -4.1197060053856172 0.12953255783052939 10.744871186056528 85.209240221058394 21.092884442447374 4.8978095803798452 84.075833118599846 1.0000000180025095e-35 28.888825727902848 0.14045886439880015 25.982402615515607 1.0000000180025095e-35 14.691599949193231 0.81892697466467979 19.294973648357985 -8.4902190983984855 1.0000000180025095e-35 35.436449709975491 1.1249996425626177e-06 3.5000000000000004 1.0000000180025095e-35 21.053181010318617 1.5000000000000002
decision_type=2 2 2 2 2 2 2 2 10 2 2 2 2 2 2 2 10 2 2 2 2 2 2 2 2 2 2 2 2 2
left_child=1 2 12 5 17 6 10 19 11 13 15 -8 27 14 18 -2 -17 20 21 28 -3 -9 -10 29 -12 -20 -27 -1 -6 -4
right_child=3 4 23 -5 7 -7 8 9 22 -11 24 -13 -14 -15 -16 16 -18 -19 25 -21 -22 -23 -24 -25 -26 26 -28 -29 -30 -31
leaf_value=-0.03653098021200523 0.025820679821248079 -0.34661591713249973 -0.00034087875459814398 -0.42455864752341022 -0.20226526504680611 0.060457870399931793 -0.13403417260512412 -0.027228405223932984 -0.42709346302060625 -0.23622734324741637 0.040858465946099237 -0.5601246493702734 -0.0093983404621614461 -0.5064348690869177 -0.078530157232582887 -0.05680644352444876 0.0073610576683928054 -0.042833403306140272 0.094863930460405921 -0.2260087350902171 -0.15265122523873884 0.027561035789862427 -0.017941212640237462 0.031754434302733163 -0.2597107485461882 -0.077628027228246341 -0.7237750654912567 -0.20931017953400449 -0.053107788851435314 -0.29115030880804688
leaf_weight=138925 179898 1661 333999 574 2293 64249 1482 39111 270 2014 132942 455 156645 272 19332 17263 179718 3428 1497 3573 6759 24703 35743 48224 493 15742 146 1421 8140 464
leaf_count=138925 179898 1661 333999 574 2293 64249 1482 39111 270 2014 132942 455 156645 272 19332 17263 179718 3428 1497 3573 6759 24703 35743 48224 493 15742 146 1421 8140 464
internal_value=0 -0.0157379 -0.00818376 0.0207502 -0.055641 0.0211675 0.0165633 -0.046267 -0.0318863 -0.0360001 0.0201663 -0.234123 -0.0230468 -0.0319997 -0.030716 0.0132333 0.00173755 -0.14807 -0.0193324 -0.121635 -0.190914 -0.0060189 -0.0210087 0.00335099 0.039748 -0.0682013 -0.0835657 -0.0382804 -0.0858901 -0.000744318
internal_weight=0 808349 679678 613087 128671 612513 548264 116823 37950 102817 510314 1937 296991 100803 100531 376879 196981 11848 81199 14006 8420 63814 36013 382687 133435 17385 15888 140346 10433 334463
internal_count=1421436 808349 679678 613087 128671 612513 548264 116823 37950 102817 510314 1937 296991 100803 100531 376879 196981 11848 81199 14006 8420 63814 36013 382687 133435 17385 15888 140346 10433 334463
is_linear=0
shrinkage=0.1


Tree=22
num_leaves=31
num_cat=0
split_feature=47 106 97 35 95 53 181 47 14 188 54 124 44 13 16 124 189 183 120 135 189 124 57 198 47 47 10 61 51 17
split_gain=38555.2 25192 14816.8 12920.4 12278.2 11008.3 10198.5 9293.91 7629.82 7254.82 14045.8 9490.66 7037.75 6996.19 6984.8 6367.92 5794.33 5334.51 5088.21 4715.49 4545.21 4419.21 4378.29 6688.69 5216.9 4197.03 4011.56 4971.79 3904.21 3769.68
threshold=26.187466204815781 3.5000000000000004 2.5000000000000004 11.893951360780706 0.48212005108556838 5.4010674639650667 1.5000000000000002 62.938859033702727 0.44092721834496512 1.0000000180025095e-35 1.0000000180025095e-35 1.0000000180025095e-35 4.6789526880202974 0.03458301526866886 2.0402702702702706 2.5000000000000004 1.0000000180025095e-35 1.0000000180025095e-35 1.5000000000000002 1.0000000180025095e-35 1.5000000000000002 1.0000000180025095e-35 31.080004407901697 9.5000000000000018 66.734864272263863 114.41047368606577 0.12387686774886796 5.167635796894575 23.07406939916854 0.86827711030182908
decision_type=2 2 2 2 2 2 2 2 2 2 2 2 2 8 2 2 2 2 2 2 2 2 2 2 2 2 10 2 2 2
left_child=1 4 7 6 9 13 14 12 -5 11 18 -1 20 -4 -3 17 19 22 -11 26 -2 -14 24 -24 -15 -9 27 -6 -25 -23
right_child=2 3 5 8 16 -7 -8 25 -10 10 -12 -13 21 15 -16 -17 -18 -19 -20 -21 -22 29 23 28 -26 -27 -28 -29 -30 -31
leaf_value=0.0090167148675519698 0.0061864341116923145 -0.17338248280156635 -0.36660364025476627 -0.8466874984166517 -0.018450443835389903 -0.1060114054421652 0.037736224678890838 0.053724579344427974 -0.23236700335294144 -0.17723036799424341 -0.016931958025648914 -0.049781945429224844 0.035527501874621177 0.0004755333689315615 -0.068073588576452598 -0.24698557067079063 -0.20193927561665437 -0.16122855095558666 -0.53123099877897906 -0.060928264982532454 -0.35977182033307414 0.09852342337878861 -0.025741193764087636 -0.4583576690035529 0.054070817076553618 0.16607639197027313 -0.016265631481441351 -0.17332730334717905 -0.10145179269126677 -0.020394883641253594
leaf_weight=349793 187175 7450 525 217 4595 10983 7974 67199 2959 2605 153538 29789 229224 101370 40742 1044 2054 2002 481 42917 340 2998 18122 570 22126 3498 100659 3776 663 24048
leaf_count=349793 187175 7450 525 217 4595 10983 7974 67199 2959 2605 153538 29789 229224 101370 40742 1044 2054 2002 481 42917 340 2998 18122 570 22126 3498 100659 3776 663 24048
internal_value=0 -0.0155929 0.0173952 -0.0781158 -0.0102173 -0.0094524 -0.06702 0.0256092 -0.27434 -0.00306949 -0.0211775 0.00440229 0.0202447 -0.00220959 -0.0843533 -0.00089834 -0.0351049 0.000875286 -0.232407 -0.0328496 0.00552288 0.0310168 0.00314711 -0.0410751 0.0100779 0.0592836 -0.0217972 -0.0883125 -0.266445 -0.00721301
internal_weight=0 749549 671887 59342 690207 157405 56166 514482 3176 536206 156624 379582 443785 146422 48192 145897 154001 144853 3086 151947 187515 256270 142851 19355 123496 70697 109030 8371 1233 27046
internal_count=1421436 749549 671887 59342 690207 157405 56166 514482 3176 536206 156624 379582 443785 146422 48192 145897 154001 144853 3086 151947 187515 256270 142851 19355 123496 70697 109030 8371 1233 27046
is_linear=0
shrinkage=0.1


Tree=23
num_leaves=31
num_cat=0
split_feature=113 106 1 132 135 189 188 54 113 0 95 10 189 97 10 61 124 17 13 131 198 97 47 122 144 12 123 93 107 95
split_gain=33528.5 18096 12007.4 9162.24 8818.87 8515.29 8285.71 15955.9 9311.55 8059.1 7436.67 6821.2 6777.8 6626.6 6381.15 7028.27 6215.25 6334.33 5787.37 6589.74 5463.95 5213.95 5111.17 5525.21 4924.48 4761.22 4674.49 4384.67 4339.73 4304.41
threshold=3.9359100000000029 2.5000000000000004 -3.9941887657488699 1.5000000000000002 1.0000000180025095e-35 1.5000000000000002 1.5000000000000002 4.3393779863563422 6.6694000000000058 12.090723576467623 0.79238505747126442 0.055628727357303807 1.0000000180025095e-35 1.0000000180025095e-35 0.15103442601900702 5.167635796894575 2.5000000000000004 1.1249996425626177e-06 0.12626946710558443 1.0000000180025095e-35 1.5000000000000002 1.0000000180025095e-35 37.462830210509992 1.5000000000000002 1.0000000180025095e-35 0.50556995398655291 1.0000000180025095e-35 1.6404965041572186 27.500000000000004 0.64365079365079381
decision_type=2 2 2 2 2 2 2 2 2 2 2 10 2 2 8 2 2 2 10 2 2 2 2 2 2 10 2 2 2 2
left_child=1 4 9 11 12 6 8 -8 18 -3 20 -4 13 -1 15 -15 22 -18 19 -2 -5 -20 23 -13 -17 -14 27 -16 -11 -6
right_child=5 2 3 10 29 -7 7 -9 -10 28 -12 16 25 14 26 24 17 -19 21 -21 -22 -23 -24 -25 -26 -27 -28 -29 -30 -31
leaf_value=0.019907544569928434 0.0091033520051254559 -0.19959928470346752 -0.465773062325125 -0.051941916287570972 -0.024470241476635336 -0.37116341785908308 -0.47320862945698877 -0.02615731468731184 0.059736503233814256 -0.062807541994468058 -0.32809871632408472 -0.036112801740536431 -0.28756713126592626 0.014127681556914302 0.013074207256511117 -0.12472524885186818 0.16871016224342511 -0.33626700338642918 0.040220421132054054 -0.087180544745003197 -0.19132365976690058 0.014368550773916997 0.01645419921648136 0.033698779350366775 -0.02511670358240449 -0.05394766294546182 -0.035104297705689534 -0.0084089249623555823 -0.39028916196123775 -0.08401742707845887
leaf_weight=136620 20590 6524 344 15561 68626 558 837 17301 58082 17935 1259 99180 1300 11541 174787 11984 318 1135 101036 10856 3433 342415 33372 12800 8472 2652 38623 208133 414 14748
leaf_count=136620 20590 6524 344 15561 68626 558 837 17301 58082 17935 1259 99180 1300 11541 174787 11984 318 1135 101036 10856 3433 342415 33372 12800 8472 2652 38623 208133 414 14748
internal_value=0 -0.0122316 -0.0393074 -0.0296747 -0.00454737 0.0192842 0.0196795 -0.046787 0.0219415 -0.104138 -0.0927348 -0.0209954 -0.000273337 0.000600708 -0.0052151 -0.0482685 -0.0199532 -0.225749 0.017319 -0.0241364 -0.077134 0.0202586 -0.017896 -0.0281329 -0.0834717 -0.130796 -0.00194715 0.00139723 -0.0701964 -0.0350035
internal_weight=0 869761 192275 167402 677486 551675 551117 18138 532979 24873 20253 147149 594112 590160 453540 31997 146805 1453 474897 31446 18994 443451 145352 111980 20456 3952 421543 382920 18349 83374
internal_count=1421436 869761 192275 167402 677486 551675 551117 18138 532979 24873 20253 147149 594112 590160 453540 31997 146805 1453 474897 31446 18994 443451 145352 111980 20456 3952 421543 382920 18349 83374
is_linear=0
shrinkage=0.1


Tree=24
num_leaves=31
num_cat=0
split_feature=47 97 106 47 53 13 108 62 62 123 17 124 57 198 93 51 3 60 189 51 189 68 155 0 15 57 124 184 64 102
split_gain=29401.4 13979.8 13801.1 10380.3 10367.3 8657.27 8446.62 7504.99 6915.57 5903.3 6894.45 9671.66 6647.38 6145.42 6116.97 5697.12 5423.05 5294.99 5245.71 5147.36 5126.93 5320.9 5062.98 4599.89 4376.51 4106.74 4743.83 3885.62 3730.05 3980.48
threshold=13.932029174547573 2.5000000000000004 3.5000000000000004 44.509712145413751 5.4010674639650667 0.03458301526866886 13.500000000000002 11.44001080094286 5.7526245262592957 1.0000000180025095e-35 1.5624988660164777e-06 1.5000000000000002 24.948187092153624 3.5000000000000004 1.8155473014823216 19.49038088925202 1.0000000180025095e-35 5.297468667526366 1.0000000180025095e-35 19.806426009979294 1.5000000000000002 147.48836545200405 1.0000000180025095e-35 4.0092853993449244 0.77525510204081638 19.549058992321036 1.0000000180025095e-35 1.0000000180025095e-35 10.77232668915782 1.0000000180025095e-35
decision_type=2 2 2 2 2 8 2 2 2 2 2 2 2 2 2 2 2 2 2 2 2 2 2 2 2 2 2 2 2 2
left_child=2 3 7 8 5 -3 17 16 23 12 -11 -12 14 -14 19 -15 -1 -4 22 -7 21 27 28 -2 -8 26 -25 -5 29 -18
right_child=1 4 6 20 -6 9 24 -9 -10 10 11 -13 13 15 -16 -17 18 -19 -20 -21 -22 -23 -24 25 -26 -27 -28 -29 -30 -31
leaf_value=-0.090021611060415341 -0.10460332557689381 -0.35990643162419 -0.1016914508507786 0.039036613809522579 -0.094232702189061934 0.012204607788242453 -0.70737752576048185 0.0078865784602691023 0.025044477170690405 0.059922470086615935 -0.032967617876544751 -0.17352895085022338 -0.019347991970738561 -0.2788770596504539 -0.014168647497982462 -0.047960402645098078 -0.057675262815399968 -0.026298975561581797 -0.22629242068763347 0.065750171196577639 -0.25064418625028617 0.2273010489530215 0.014198718705758673 0.013894171634088202 -0.21229553899683934 -0.013139421100164245 -0.032847961617407551 -0.005870558504145168 -0.0070530407839879466 -0.023934204320717811
leaf_weight=11908 4073 692 19200 187148 14507 51696 192 99003 177651 5824 27527 5954 35195 1841 48942 2546 49093 18095 1241 27505 627 1440 37098 228449 2550 118120 23993 21479 76363 121484
leaf_count=11908 4073 692 19200 187148 14507 51696 192 99003 177651 5824 27527 5954 35195 1841 48942 2546 49093 18095 1241 27505 627 1440 37098 228449 2550 118120 23993 21479 76363 121484
internal_value=0 0.00957001 -0.0216137 0.0159988 -0.0125021 -0.0067941 -0.0775664 -0.0159593 0.00879451 -0.00561382 -0.0404962 -0.0579639 0.00256058 -0.0332594 0.013625 -0.144864 -0.0239032 -0.0651121 -0.0211433 0.0308 0.0348832 0.0357355 -0.020247 0.00108882 -0.246962 0.00225053 0.00945163 0.0344132 -0.0254218 -0.0336451
internal_weight=0 985209 436227 762980 222229 207722 40037 396190 552286 207030 39305 33481 167725 39582 128143 4387 297187 37295 285279 79201 210694 210067 284038 374635 2742 370562 252442 208627 246940 170577
internal_count=1421436 985209 436227 762980 222229 207722 40037 396190 552286 207030 39305 33481 167725 39582 128143 4387 297187 37295 285279 79201 210694 210067 284038 374635 2742 370562 252442 208627 246940 170577
is_linear=0
shrinkage=0.1


Tree=25
num_leaves=31
num_cat=0
split_feature=102 97 53 189 15 67 47 42 135 155 17 198 47 45 123 17 124 3 189 1 97 61 97 144 184 155 132 86 80 11
split_gain=25226 15667.6 10421.6 9166.54 9138.88 8390.83 7708.89 6664.33 6419.7 6412.75 6301.39 6187.63 5598.75 6384.27 5013.47 4965.69 5884.83 4789.02 4708.4 4687.87 4530.48 4200.8 4132.53 4041.42 4135.24 3966.89 3688.49 3605.42 3506.42 3381.24
threshold=1.5000000000000002 2.5000000000000004 10.744871186056528 1.0000000180025095e-35 0.77525510204081638 5.9328016951793776 44.509712145413751 12.80123123712322 1.0000000180025095e-35 1.0000000180025095e-35 0.86827711030182908 1.0000000180025095e-35 44.509712145413751 4.6831657938645277 1.0000000180025095e-35 4.8399958720703568e-06 1.5000000000000002 1.0000000180025095e-35 1.0000000180025095e-35 -0.10263039861006153 10.500000000000002 5.4839017747894863 1.0000000180025095e-35 1.0000000180025095e-35 1.0000000180025095e-35 1.0000000180025095e-35 1.0000000180025095e-35 1.0000000180025095e-35 38.525137111638621 -0.50796664517601542
decision_type=2 2 2 2 2 2 2 2 2 2 2 2 2 2 2 2 2 2 2 2 2 2 2 2 2 2 2 2 2 10
left_child=1 6 3 5 -3 11 8 12 17 10 -9 14 13 19 25 -16 -17 -1 22 20 29 -12 -19 24 -24 27 -13 -2 -10 -6
right_child=2 4 -4 -5 7 -7 -8 9 28 -11 21 26 -14 -15 15 16 -18 18 -20 -21 -22 -23 23 -25 -26 -27 -28 -29 -30 -31
leaf_value=-0.060957337502696989 0.0033535566609535525 -0.39135589390378145 -0.19135847843732817 -0.15245168050248453 -0.19049718703568269 0.029171648693844549 0.035632249646086807 -0.026647189267261374 -0.02835618073396225 -0.0057563674297846854 -0.33461698866334683 -0.014104489330853957 0.017465519192689915 -0.010506782063448001 0.07281981796938039 -0.024212539710778521 -0.17934468879187498 0.015603358948316663 -0.17744399405450428 -0.12722318962099316 -0.18848346187155987 -0.15536715121990544 -0.013922262201794357 0.0059721287976605003 -0.087548416789001993 0.047512471183971269 -0.08572460052690567 0.025583582832896041 -0.10194635153844145 -0.040984355858264057
leaf_weight=14114 208246 736 2478 3290 1544 258758 43040 2981 68469 4632 1747 42077 19840 48802 4771 32386 2645 109078 1519 8296 2235 5196 159349 131654 8012 33083 8673 112304 7151 74330
leaf_count=14114 208246 736 2478 3290 1544 258758 43040 2981 68469 4632 1747 42077 19840 48802 4771 32386 2645 109078 1519 8296 2235 5196 159349 131654 8012 33083 8673 112304 7151 74330
internal_value=0 -0.0132842 0.0133594 0.0140777 -0.039741 0.0148571 -0.00497526 -0.0382151 -0.00847534 -0.10291 -0.148257 0.00651824 -0.0321414 -0.0394207 0.0107572 -0.0228906 -0.0359257 -0.00368537 -0.00171195 -0.0557514 -0.0481603 -0.20047 -0.00105784 -0.0071357 -0.0174469 0.0145443 -0.0263441 0.0111418 -0.0353152 -0.0440269
internal_weight=0 712725 708711 706233 170339 702943 542386 169603 499346 14556 9924 444185 155047 135207 393435 39802 35031 423726 409612 86405 78109 6943 408093 299015 167361 353633 50750 320550 75620 75874
internal_count=1421436 712725 708711 706233 170339 702943 542386 169603 499346 14556 9924 444185 155047 135207 393435 39802 35031 423726 409612 86405 78109 6943 408093 299015 167361 353633 50750 320550 75620 75874
is_linear=0
shrinkage=0.1


Tree=26
num_leaves=31
num_cat=0
split_feature=47 102 97 106 10 53 181 113 127 57 62 1 47 62 37 51 14 44 15 61 17 124 57 51 197 189 113 3 181 53
split_gain=21647 11726.4 9846.45 9582.82 8030.68 7791.72 6588.57 5964.56 4957.93 4770.09 4569.17 10303.6 4985.86 4480.13 5261.47 4534.71 4125.06 4095.99 3861.85 3759.21 3723.16 6257.62 3932.83 4301.31 3693.92 3528.14 3430.25 3342.83 3224.33 2929.35
threshold=23.359294651066957 1.0000000180025095e-35 1.5000000000000002 5.5000000000000009 0.10046018642979732 5.4010674639650667 1.5000000000000002 5.8579100000000066 1.0000000180025095e-35 39.172473171076135 11.44001080094286 -4.2578127271384307 67.086686386753271 11.44001080094286 14.950926653161545 9.4747113574974176 0.50352112676056349 4.6789526880202974 1.1678403755868547 5.7117054376828298 1.1249996425626177e-06 1.5000000000000002 12.876496700483878 14.113662965310038 1.0000000180025095e-35 1.0000000180025095e-35 9.4356500000000008 1.0000000180025095e-35 2.5000000000000004 10.744871186056528
decision_type=2 2 2 2 8 2 2 2 2 2 2 2 2 2 2 2 2 2 2 2 2 2 2 2 2 2 2 2 2 2
left_child=1 3 7 24 9 6 8 17 10 -4 11 19 18 14 -3 -16 -5 -2 -13 -6 -20 22 -22 -24 27 26 -9 -1 -17 -7
right_child=2 13 4 16 5 29 -8 25 -10 -11 -12 12 -14 -15 15 28 -18 -19 20 -21 21 -23 23 -25 -26 -27 -28 -29 -30 -31
leaf_value=-0.11365747145891669 0.00410815594782295 -0.0013140399812642907 -0.075800975557220512 -0.53756835520335222 -0.24672639271285865 -0.050401639800878008 0.074280561132902628 0.04694778415356661 0.078961781925235133 -0.34207507535765663 0.022047309346049253 -0.091688888475167762 0.03280250854892023 0.010071466109632781 -0.085871178410688281 -0.024122784262758781 -0.1415496593911755 0.025333504228741623 0.097409499469031602 -0.082048527467810869 0.0065067949338973438 -0.13536610406645219 -0.054953931997675232 -0.0071130037151790311 0.011316789993552276 -0.12045696497638358 0.16280323230868066 -0.035240437671416616 0.057853393985862825 -0.17170596256946863
leaf_weight=5688 161795 195998 7211 275 1842 12724 12859 62805 8023 742 69613 5503 32963 124253 11752 132014 6041 207543 3372 5602 110087 3817 27143 61092 16674 1213 2664 122789 4979 2360
leaf_count=5688 161795 195998 7211 275 1842 12724 12859 62805 8023 742 69613 5503 32963 124253 11752 132014 6041 207543 3372 5602 110087 3817 27143 61092 16674 1213 2664 122789 4979 2360
internal_value=0 -0.0140212 0.0108614 -0.038212 -0.00125762 0.000956442 0.00405944 0.021005 0.00131531 -0.100644 -0.00062516 -0.00690267 -0.00336659 -0.00620856 -0.0120762 -0.0262574 -0.158792 0.0160354 -0.00901665 -0.122798 -0.00680293 -0.00854136 -0.00610043 -0.0218299 -0.0329652 0.0485311 0.0516621 -0.0387122 -0.0211434 -0.0693806
internal_weight=0 620463 800973 151467 364953 357000 341916 436020 329057 7953 321034 251421 243977 468996 344743 148745 6316 369338 211014 7444 205511 202139 198322 88235 145151 66682 65469 128477 136993 15084
internal_count=1421436 620463 800973 151467 364953 357000 341916 436020 329057 7953 321034 251421 243977 468996 344743 148745 6316 369338 211014 7444 205511 202139 198322 88235 145151 66682 65469 128477 136993 15084
is_linear=0
shrinkage=0.1


Tree=27
num_leaves=31
num_cat=0
split_feature=47 155 55 132 67 106 1 57 62 45 93 181 54 13 131 15 0 120 198 1 123 127 47 42 13 1 184 124 47 79
split_gain=18630.5 11658.6 10455.4 9400.25 8212.92 8140.28 7375.14 5340.69 5262.42 4854.35 4883.32 4501.15 4395.95 5775.75 5121.02 4242.84 4106.6 3973.62 3919.04 3877.18 3857 3811.54 3806.81 3471.01 3645.24 3150.53 2935.48 2919.99 2838.3 2758.88
threshold=11.227381579585741 1.0000000180025095e-35 5.4595822028148939 1.0000000180025095e-35 5.4730597340910165 4.5000000000000009 -0.19458763855891878 19.220107850151887 4.8978095803798452 4.6789526880202974 3.9385606418493322 1.5000000000000002 4.3393779863563422 0.12346989233217902 3.5000000000000004 1.789898132427844 4.0092853993449244 1.0000000180025095e-35 2.5000000000000004 -4.2578127271384307 4.5000000000000009 1.0000000180025095e-35 68.610581478630465 6.62695181334034 0.40574334384461291 -3.9941887657488699 1.5000000000000002 1.0000000180025095e-35 54.599497695365635 63.243626384886376
decision_type=2 2 2 2 2 2 2 2 2 2 2 2 2 8 2 2 2 2 2 2 2 2 2 2 10 2 2 2 2 2
left_child=5 2 4 16 9 8 7 -5 19 10 12 20 17 14 -14 -6 -4 27 -9 -1 -7 29 -3 -12 25 -25 28 -2 -18 -8
right_child=1 22 3 6 15 11 21 18 -10 -11 23 -13 13 -15 -16 -17 26 -19 -20 -21 -22 -23 -24 24 -26 -27 -28 -29 -30 -31
leaf_value=-0.19793297741615046 0.050457225193961154 0.027671461343354072 -0.12849944640608851 -0.010747786811203114 0.035064435141852569 -0.11992221787307314 -0.10266905834322299 -0.052484111047218819 -0.0073618208674739814 0.017921823928005121 -0.020745062478390253 0.029395972672500648 -0.047202371441432397 0.00067768719960909754 -0.42337427357130725 0.010719835717069498 -0.0035510317598960242 -0.13247104025854997 -0.17896189630614501 -0.034600025920469908 -1.0374144228904143 0.097567916252190301 0.085009882670064582 -0.22925765604838977 -0.0021426612175749135 -0.06934026524667479 -0.07036089485017076 -0.019440528468199082 0.028350672934508537 -0.28499351218395635
leaf_weight=1474 31178 121471 2526 57031 126770 11642 14318 20362 141644 108207 76058 2304 21817 177434 368 164469 165157 1434 2785 103705 46 909 12799 2275 2940 2687 5796 7394 33555 881
leaf_count=1474 31178 121471 2526 57031 126770 11642 14318 20362 141644 108207 76058 2304 21817 177434 368 164469 165157 1434 2785 103705 46 909 12799 2275 2940 2687 5796 7394 33555 881
internal_value=0 0.00542712 0.00180203 -0.0137809 0.00833925 -0.0241506 -0.0395951 -0.0271901 -0.0199443 -0.000413768 -0.0065452 -0.098351 0.000726458 -0.00533702 -0.0534422 0.0213165 -0.00177542 0.0309816 -0.0677017 -0.036889 -0.123533 -0.101341 0.0331371 -0.0272988 -0.0903794 -0.14266 -0.000210176 0.0370583 0.00183597 -0.113237
internal_weight=0 1.16062e+06 1.02635e+06 303320 723031 260815 96286 80178 246823 431792 323585 13992 239625 199619 22185 291239 207034 40006 23147 105179 11688 16108 134270 83960 7902 4962 204508 38572 198712 15199
internal_count=1421436 1160621 1026351 303320 723031 260815 96286 80178 246823 431792 323585 13992 239625 199619 22185 291239 207034 40006 23147 105179 11688 16108 134270 83960 7902 4962 204508 38572 198712 15199
is_linear=0
shrinkage=0.1


Tree=28
num_leaves=31
num_cat=0
split_feature=47 35 104 188 54 132 97 47 11 124 189 97 10 17 143 95 48 123 17 124 51 108 17 120 12 151 43 124 182 75
split_gain=16431.3 12278.5 9183.87 7522.21 13545 6844.03 6099.46 6069.92 5655.17 5475.02 5109.54 4931.2 5043.66 4606.7 4186.71 4031.12 4007.04 3916.23 5813.75 6001.77 3844.39 3827.44 3685.18 3664.63 3632.92 3590.54 4467.2 3569.19 3497.17 3487.65
threshold=30.355967938238731 11.893951360780706 1.5000000000000002 1.0000000180025095e-35 1.0000000180025095e-35 1.5000000000000002 2.5000000000000004 90.996903586297861 -0.54318327146464696 1.0000000180025095e-35 1.0000000180025095e-35 1.0000000180025095e-35 0.10046018642979732 1.1249996425626177e-06 1.5000000000000002 0.32392686804451515 80.875869265382207 1.0000000180025095e-35 0.86827711030182908 1.5000000000000002 14.798909015282218 23.500000000000004 0.86827711030182908 1.5000000000000002 0.50705277492379086 3.5000000000000004 4.9419441258988437 1.5000000000000002 1.0000000180025095e-35 65.604880606006972
decision_type=2 2 2 2 2 2 2 2 8 2 2 2 8 2 2 2 2 2 2 2 2 2 2 2 10 2 2 2 2 2
left_child=1 2 6 9 8 7 -1 10 -5 14 11 -2 -13 -11 15 -4 -7 22 -19 -20 21 -3 -14 -10 -12 26 -6 -15 -24 -22
right_child=5 20 3 4 25 16 -8 -9 23 13 24 12 17 27 -16 -17 -18 18 19 -21 29 -23 28 -25 -26 -27 -28 -29 -30 -31
leaf_value=-0.016423224214807696 0.032866402259251276 -0.30145592715832548 0.016335214450351573 -0.081128935408359831 0.011777619917964033 -0.039860064426004864 -0.057296531203362082 0.070634010583777121 -0.25775241864617132 0.069665149408593433 -0.20899513231751221 -0.055027244702846756 -0.041186444437733997 -0.033499586976077696 -0.16341326253970356 -0.0030324482906941468 -0.22117081626833235 0.069307816125575197 -0.014735809053246993 -0.14089150054093277 -0.10449016510289243 -1.1140274699777366 0.018000345656710628 -0.59710856773251419 -0.0083464694596675337 -0.075500393815058131 -0.022171171348285064 -0.14614073297043906 -0.14294274994254574 -0.47141681027863802
leaf_weight=148010 110653 615 261926 1732 55768 10862 48465 19205 1446 4000 1743 11939 11157 30680 1423 182236 1373 7524 47138 4099 4746 64 311228 408 1871 9304 127094 3097 1356 274
leaf_count=148010 110653 615 261926 1732 55768 10862 48465 19205 1446 4000 1743 11939 11157 30680 1423 182236 1373 7524 47138 4099 4746 64 311228 408 1871 9304 127094 3097 1356 274
internal_value=0 -0.00841723 -0.00746496 -0.00195631 -0.0184944 0.0137333 -0.0265055 0.0154469 -0.211056 0.00474128 0.0133635 0.0142112 0.00897786 -0.0318105 0.00784016 0.00838882 -0.0602066 0.0109756 -0.0127748 -0.0248284 -0.154724 -0.378046 0.0152865 -0.332433 -0.105118 -0.014901 -0.0118177 -0.0438276 0.0173022 -0.124518
internal_weight=0 881288 875589 679114 195752 540148 196475 527913 3586 483362 508708 505094 394441 37777 445585 444162 12235 382502 58761 51237 5699 679 323741 1854 3614 192166 182862 33777 312584 5020
internal_count=1421436 881288 875589 679114 195752 540148 196475 527913 3586 483362 508708 505094 394441 37777 445585 444162 12235 382502 58761 51237 5699 679 323741 1854 3614 192166 182862 33777 312584 5020
is_linear=0
shrinkage=0.1


Tree=29
num_leaves=31
num_cat=0
split_feature=97 181 62 57 1 1 113 127 132 97 47 62 10 127 61 47 62 57 135 61 123 11 184 113 51 48 13 123 17 93
split_gain=13954.1 10139.3 12867.4 11640.5 11130.7 8742.03 7802.97 6653.62 5612.59 5078.42 4978.56 4761.84 4605.75 4584.49 4399.82 4282.76 4076.63 3902.19 3725.53 3277.06 3195.85 3171.64 3263.22 3036.46 3009.9 2931.43 2896.45 4029.98 3465.79 2446.19
threshold=1.5000000000000002 1.0000000180025095e-35 1.0000000180025095e-35 50.618372725255533 -4.2578127271384307 -0.057149084815029942 4.7644500000000027 1.0000000180025095e-35 1.5000000000000002 7.5000000000000009 38.115136752438836 17.127397075626423 0.32807000455761887 1.0000000180025095e-35 20.929707056864721 74.511185306592736 4.8978095803798452 19.220107850151887 1.0000000180025095e-35 10.293509589067931 3.5000000000000004 -0.50401730335594352 1.0000000180025095e-35 7.7962600000000082 9.7188327521030899 128.77832742452503 0.41420154317905683 1.5000000000000002 1.5624988660164777e-06 80.37646848188524
decision_type=2 2 2 2 2 2 2 2 2 2 2 2 10 2 2 2 2 2 2 2 2 8 2 2 2 2 8 2 2 2
left_child=6 2 3 4 29 8 12 9 15 10 11 21 16 19 -5 20 17 -1 23 -7 26 -4 -23 -8 -19 -16 27 -6 -29 -2
right_child=1 -3 7 14 5 13 18 -9 -10 -11 -12 -13 -14 -15 25 -17 -18 24 -20 -21 -22 22 -24 -25 -26 -27 -28 28 -30 -31
leaf_value=7.4434569117244717e-05 -0.15252557778173814 0.023014894811219013 -0.089431394457959057 -0.12796211154061665 -0.019112449679285999 -0.067177175014847892 0.029033839995396851 0.081312716836646537 -0.098340602579487027 -0.094607946440343496 0.01540877564553695 0.011697179443776424 0.01954815472174825 0.077502325449664081 -0.32040343308258568 0.041461032577411849 0.0098855528298036482 -0.046866249597674582 -0.0079966030873566719 -0.15216085774615695 -0.46393684266717888 -0.012583106763756145 -0.053123904836013348 0.084358806398023845 -0.011108240726188705 -0.83350747915787426 0.078491107939927168 0.072465523493741232 -0.1306300652846818 -0.51050710038939107
leaf_weight=158123 6148 78787 6173 1817 128786 10165 149773 8751 8871 6486 88355 66787 135854 1486 1175 11757 182937 39018 26166 8196 163 193871 22120 10624 59341 123 2872 991 5523 197
leaf_count=158123 6148 78787 6173 1817 128786 10165 149773 8751 8871 6486 88355 66787 135854 1486 1175 11757 182937 39018 26166 8196 163 193871 22120 10624 59341 123 2872 991 5523 197
internal_value=0 -0.0106482 -0.0152146 -0.0367068 -0.0334816 -0.028863 0.00921927 -0.00490662 -0.0210501 -0.00687254 -0.00536434 -0.0117163 0.00345592 -0.0914394 -0.228412 -0.016482 -0.00151927 -0.00965382 0.0269907 -0.105112 -0.0214065 -0.0187549 -0.016735 0.0326983 -0.0252931 -0.369026 -0.0208844 -0.0229939 -0.0997323 -0.16364
internal_weight=0 659600 580813 188270 185155 178810 761836 392543 158963 383792 377306 288951 575273 19847 3115 150092 439419 256482 186563 18361 138335 222164 215991 160397 98359 1298 138172 135300 6514 6345
internal_count=1421436 659600 580813 188270 185155 178810 761836 392543 158963 383792 377306 288951 575273 19847 3115 150092 439419 256482 186563 18361 138335 222164 215991 160397 98359 1298 138172 135300 6514 6345
is_linear=0
shrinkage=0.1


Tree=30
num_leaves=31
num_cat=0
split_feature=47 97 122 62 0 1 35 130 0 57 57 132 127 47 11 62 11 61 45 11 123 132 34 189 189 62 1 106 62 11
split_gain=13139.6 9867.28 8625.62 11186.4 9145 6557.44 6120.87 5820.88 6622.58 5508.17 4780.83 5181.24 4559.69 4504.74 4396.31 4384.54 4233.33 4011.98 4626.29 3890.65 3876.75 3861.63 5274.32 3635.43 3553.93 3454.06 3584.34 3333.77 3323.04 3073.38
